<?xml version="1.0"?>
<opencv_storage>
<stage21>
  <maxWeakCount>6</maxWeakCount>
  <stageThreshold>-8.5920745134353638e-01</stageThreshold>
  <weakClassifiers>
    <_>
      <internalNodes>
        0 -1 67507 -2.7098827064037323e-02</internalNodes>
      <leafValues>
        -8.0909091234207153e-01 6.5555554628372192e-01</leafValues></_>
    <_>
      <internalNodes>
        0 -1 11453 4.6002656221389771e-02</internalNodes>
      <leafValues>
        2.2366164624691010e-01 -8.2214200496673584e-01</leafValues></_>
    <_>
      <internalNodes>
        0 -1 72696 -6.5735066309571266e-03</internalNodes>
      <leafValues>
        6.5848326683044434e-01 -1.6339191794395447e-01</leafValues></_>
    <_>
      <internalNodes>
        0 -1 72548 8.3325952291488647e-03</internalNodes>
      <leafValues>
        -1.8284627795219421e-01 5.6390243768692017e-01</leafValues></_>
    <_>
      <internalNodes>
        0 -1 47995 4.7720696777105331e-02</internalNodes>
      <leafValues>
        -2.1699629724025726e-01 4.0043181180953979e-01</leafValues></_>
    <_>
      <internalNodes>
        0 -1 42124 2.0311351865530014e-02</internalNodes>
      <leafValues>
        -3.2797181606292725e-01 3.4106183052062988e-01</leafValues></_></weakClassifiers></stage21>
</opencv_storage>
