<?xml version="1.0"?>
<opencv_storage>
<stage1>
  <maxWeakCount>8</maxWeakCount>
  <stageThreshold>-1.0532988309860229e+00</stageThreshold>
  <weakClassifiers>
    <_>
      <internalNodes>
        0 -1 52977 9.6855685114860535e-03</internalNodes>
      <leafValues>
        -5.3117209672927856e-01 7.9617267847061157e-01</leafValues></_>
    <_>
      <internalNodes>
        0 -1 38420 -8.0449040979146957e-04</internalNodes>
      <leafValues>
        7.0058321952819824e-01 -3.5856100916862488e-01</leafValues></_>
    <_>
      <internalNodes>
        0 -1 11954 3.0097108334302902e-02</internalNodes>
      <leafValues>
        -5.7581019401550293e-01 4.0963289141654968e-01</leafValues></_>
    <_>
      <internalNodes>
        0 -1 60803 -5.9981616213917732e-03</internalNodes>
      <leafValues>
        2.5366032123565674e-01 -7.3865944147109985e-01</leafValues></_>
    <_>
      <internalNodes>
        0 -1 37802 -1.0156166972592473e-03</internalNodes>
      <leafValues>
        4.6262958645820618e-01 -4.6337819099426270e-01</leafValues></_>
    <_>
      <internalNodes>
        0 -1 33221 -2.1664267405867577e-03</internalNodes>
      <leafValues>
        7.4688345193862915e-01 -2.3214514553546906e-01</leafValues></_>
    <_>
      <internalNodes>
        0 -1 47921 -5.1099580014124513e-04</internalNodes>
      <leafValues>
        4.7117418050765991e-01 -3.7539693713188171e-01</leafValues></_>
    <_>
      <internalNodes>
        0 -1 56846 2.6525028049945831e-02</internalNodes>
      <leafValues>
        -4.4359317421913147e-01 3.8293325901031494e-01</leafValues></_></weakClassifiers></stage1>
</opencv_storage>
