<?xml version="1.0"?>
<opencv_storage>
<stage8>
  <maxWeakCount>5</maxWeakCount>
  <stageThreshold>-1.3310358524322510e+00</stageThreshold>
  <weakClassifiers>
    <_>
      <internalNodes>
        0 -1 46553 1.5428571030497551e-02</internalNodes>
      <leafValues>
        7.0646566152572632e-01 -6.7922496795654297e-01</leafValues></_>
    <_>
      <internalNodes>
        0 -1 31859 -2.5840550661087036e-02</internalNodes>
      <leafValues>
        5.2374905347824097e-01 -4.9356454610824585e-01</leafValues></_>
    <_>
      <internalNodes>
        0 -1 25421 2.3643639869987965e-03</internalNodes>
      <leafValues>
        -3.5844799876213074e-01 5.7982122898101807e-01</leafValues></_>
    <_>
      <internalNodes>
        0 -1 52945 3.2231342047452927e-03</internalNodes>
      <leafValues>
        -4.1512918472290039e-01 3.8035693764686584e-01</leafValues></_>
    <_>
      <internalNodes>
        0 -1 57241 -1.3499328866600990e-02</internalNodes>
      <leafValues>
        5.2504426240921021e-01 -3.2293832302093506e-01</leafValues></_></weakClassifiers></stage8>
</opencv_storage>
