<?xml version="1.0"?>
<opencv_storage>
<stage19>
  <maxWeakCount>32</maxWeakCount>
  <stageThreshold>-9.6484285593032837e-01</stageThreshold>
  <weakClassifiers>
    <_>
      <internalNodes>
        0 -1 57047 -2.7225498110055923e-02</internalNodes>
      <leafValues>
        4.6311971545219421e-01 -2.8709056973457336e-01</leafValues></_>
    <_>
      <internalNodes>
        0 -1 72095 7.0764278061687946e-03</internalNodes>
      <leafValues>
        -2.6911416649818420e-01 3.0967891216278076e-01</leafValues></_>
    <_>
      <internalNodes>
        0 -1 47982 1.4620151370763779e-02</internalNodes>
      <leafValues>
        -3.6803144216537476e-01 1.8813869357109070e-01</leafValues></_>
    <_>
      <internalNodes>
        0 -1 61444 2.5791823863983154e-03</internalNodes>
      <leafValues>
        8.5497297346591949e-02 -7.8596365451812744e-01</leafValues></_>
    <_>
      <internalNodes>
        0 -1 30746 2.0899935625493526e-03</internalNodes>
      <leafValues>
        -2.8139322996139526e-01 2.2707229852676392e-01</leafValues></_>
    <_>
      <internalNodes>
        0 -1 38143 -7.7862874604761600e-03</internalNodes>
      <leafValues>
        4.2408859729766846e-01 -1.6092184185981750e-01</leafValues></_>
    <_>
      <internalNodes>
        0 -1 8279 -3.9071619510650635e-01</internalNodes>
      <leafValues>
        5.6760406494140625e-01 -1.5132413804531097e-01</leafValues></_>
    <_>
      <internalNodes>
        0 -1 67856 -1.2454012408852577e-02</internalNodes>
      <leafValues>
        -4.3525120615959167e-01 1.3496355712413788e-01</leafValues></_>
    <_>
      <internalNodes>
        0 -1 56780 5.7589081116020679e-03</internalNodes>
      <leafValues>
        -2.1756744384765625e-01 2.5878974795341492e-01</leafValues></_>
    <_>
      <internalNodes>
        0 -1 64533 2.2531352005898952e-03</internalNodes>
      <leafValues>
        -2.4771128594875336e-01 2.2877575457096100e-01</leafValues></_>
    <_>
      <internalNodes>
        0 -1 32997 -1.2582385912537575e-02</internalNodes>
      <leafValues>
        4.0500348806381226e-01 -1.1827231943607330e-01</leafValues></_>
    <_>
      <internalNodes>
        0 -1 42170 -5.6668049655854702e-03</internalNodes>
      <leafValues>
        4.7856354713439941e-01 -1.1247993260622025e-01</leafValues></_>
    <_>
      <internalNodes>
        0 -1 61104 1.6432873904705048e-02</internalNodes>
      <leafValues>
        8.2393817603588104e-02 -7.6734954118728638e-01</leafValues></_>
    <_>
      <internalNodes>
        0 -1 21091 8.9536212384700775e-02</internalNodes>
      <leafValues>
        -7.3881119489669800e-02 8.0729973316192627e-01</leafValues></_>
    <_>
      <internalNodes>
        0 -1 77285 1.3294415548443794e-03</internalNodes>
      <leafValues>
        -1.3996008038520813e-01 3.4282544255256653e-01</leafValues></_>
    <_>
      <internalNodes>
        0 -1 57175 1.7046537250280380e-03</internalNodes>
      <leafValues>
        -3.3381932973861694e-01 1.4950861036777496e-01</leafValues></_>
    <_>
      <internalNodes>
        0 -1 61443 -5.3408769890666008e-03</internalNodes>
      <leafValues>
        -9.3387448787689209e-01 5.5871985852718353e-02</leafValues></_>
    <_>
      <internalNodes>
        0 -1 61628 -2.9230886138975620e-03</internalNodes>
      <leafValues>
        -7.0153826475143433e-01 6.1103094369173050e-02</leafValues></_>
    <_>
      <internalNodes>
        0 -1 61657 9.0610483312048018e-05</internalNodes>
      <leafValues>
        1.3037285208702087e-01 -4.0126243233680725e-01</leafValues></_>
    <_>
      <internalNodes>
        0 -1 67460 7.1205035783350468e-03</internalNodes>
      <leafValues>
        -9.7580254077911377e-02 5.8769565820693970e-01</leafValues></_>
    <_>
      <internalNodes>
        0 -1 67265 -8.1924926489591599e-03</internalNodes>
      <leafValues>
        3.2661446928977966e-01 -1.5372344851493835e-01</leafValues></_>
    <_>
      <internalNodes>
        0 -1 70142 -6.8630441091954708e-04</internalNodes>
      <leafValues>
        2.3416796326637268e-01 -2.1761043369770050e-01</leafValues></_>
    <_>
      <internalNodes>
        0 -1 72237 -5.7341605424880981e-03</internalNodes>
      <leafValues>
        2.3346549272537231e-01 -2.5266921520233154e-01</leafValues></_>
    <_>
      <internalNodes>
        0 -1 38150 1.0837747715413570e-02</internalNodes>
      <leafValues>
        -7.3481321334838867e-02 7.1160268783569336e-01</leafValues></_>
    <_>
      <internalNodes>
        0 -1 442 -2.9767485102638602e-04</internalNodes>
      <leafValues>
        2.1340018510818481e-01 -2.5071001052856445e-01</leafValues></_>
    <_>
      <internalNodes>
        0 -1 57982 4.4128326699137688e-03</internalNodes>
      <leafValues>
        7.8563377261161804e-02 -6.6999477148056030e-01</leafValues></_>
    <_>
      <internalNodes>
        0 -1 55449 -1.3138165697455406e-02</internalNodes>
      <leafValues>
        2.8179141879081726e-01 -2.0081244409084320e-01</leafValues></_>
    <_>
      <internalNodes>
        0 -1 50422 -2.3780069313943386e-03</internalNodes>
      <leafValues>
        -6.0746443271636963e-01 8.7220378220081329e-02</leafValues></_>
    <_>
      <internalNodes>
        0 -1 43812 1.8723511602729559e-03</internalNodes>
      <leafValues>
        -1.4790983498096466e-01 4.0107467770576477e-01</leafValues></_>
    <_>
      <internalNodes>
        0 -1 57520 -4.3872706592082977e-03</internalNodes>
      <leafValues>
        2.7364087104797363e-01 -1.6828520596027374e-01</leafValues></_>
    <_>
      <internalNodes>
        0 -1 61250 -4.1707772761583328e-03</internalNodes>
      <leafValues>
        -7.5791209936141968e-01 7.6217181980609894e-02</leafValues></_>
    <_>
      <internalNodes>
        0 -1 68230 -9.8370900377631187e-04</internalNodes>
      <leafValues>
        3.2284024357795715e-01 -1.6078972816467285e-01</leafValues></_></weakClassifiers></stage19>
</opencv_storage>
