<?xml version="1.0"?>
<opencv_storage>
<stage22>
  <maxWeakCount>7</maxWeakCount>
  <stageThreshold>-1.2139332294464111e+00</stageThreshold>
  <weakClassifiers>
    <_>
      <internalNodes>
        0 -1 69086 -3.4338429570198059e-02</internalNodes>
      <leafValues>
        -5.9420287609100342e-01 6.4747881889343262e-01</leafValues></_>
    <_>
      <internalNodes>
        0 -1 75618 -1.7133789137005806e-02</internalNodes>
      <leafValues>
        -8.6697441339492798e-01 2.7928313612937927e-01</leafValues></_>
    <_>
      <internalNodes>
        0 -1 42988 2.8122789226472378e-03</internalNodes>
      <leafValues>
        -5.4512554407119751e-01 2.7218034863471985e-01</leafValues></_>
    <_>
      <internalNodes>
        0 -1 70303 2.3714479175396264e-04</internalNodes>
      <leafValues>
        -3.8322556018829346e-01 3.4585031867027283e-01</leafValues></_>
    <_>
      <internalNodes>
        0 -1 69984 -5.0516445189714432e-03</internalNodes>
      <leafValues>
        5.2087301015853882e-01 -2.0136760175228119e-01</leafValues></_>
    <_>
      <internalNodes>
        0 -1 36666 1.7736533191055059e-03</internalNodes>
      <leafValues>
        -3.4492176771163940e-01 3.0786240100860596e-01</leafValues></_>
    <_>
      <internalNodes>
        0 -1 32639 -6.0946715530008078e-04</internalNodes>
      <leafValues>
        4.3562066555023193e-01 -2.4203774333000183e-01</leafValues></_></weakClassifiers></stage22>
</opencv_storage>
