<?xml version="1.0"?>
<opencv_storage>
<cascade>
  <stageType>BOOST</stageType>
  <featureType>HAAR</featureType>
  <height>30</height>
  <width>30</width>
  <stageParams>
    <boostType>GAB</boostType>
    <minHitRate>9.9500000476837158e-01</minHitRate>
    <maxFalseAlarm>5.0000000000000000e-01</maxFalseAlarm>
    <weightTrimRate>9.4999999999999996e-01</weightTrimRate>
    <maxDepth>1</maxDepth>
    <maxWeakCount>100</maxWeakCount></stageParams>
  <featureParams>
    <maxCatCount>0</maxCatCount>
    <featSize>1</featSize>
    <mode>BASIC</mode></featureParams>
  <stageNum>20</stageNum>
  <stages>
    <!-- stage 0 -->
    <_>
      <maxWeakCount>3</maxWeakCount>
      <stageThreshold>-1.0098366737365723e+00</stageThreshold>
      <weakClassifiers>
        <_>
          <internalNodes>
            0 -1 280 -4.1455626487731934e-03</internalNodes>
          <leafValues>
            7.8675550222396851e-01 -8.7764179706573486e-01</leafValues></_>
        <_>
          <internalNodes>
            0 -1 140 2.0472545176744461e-02</internalNodes>
          <leafValues>
            -6.3519805669784546e-01 6.7058753967285156e-01</leafValues></_>
        <_>
          <internalNodes>
            0 -1 151 2.8501503169536591e-02</internalNodes>
          <leafValues>
            -5.2049338817596436e-01 5.0300329923629761e-01</leafValues></_></weakClassifiers></_>
    <!-- stage 1 -->
    <_>
      <maxWeakCount>9</maxWeakCount>
      <stageThreshold>-1.2604457139968872e+00</stageThreshold>
      <weakClassifiers>
        <_>
          <internalNodes>
            0 -1 211 1.3928917236626148e-02</internalNodes>
          <leafValues>
            -5.5820894241333008e-01 7.2374725341796875e-01</leafValues></_>
        <_>
          <internalNodes>
            0 -1 140 3.6430340260267258e-02</internalNodes>
          <leafValues>
            -3.0965685844421387e-01 6.6289007663726807e-01</leafValues></_>
        <_>
          <internalNodes>
            0 -1 48 3.9174407720565796e-03</internalNodes>
          <leafValues>
            -3.7842050194740295e-01 4.6774324774742126e-01</leafValues></_>
        <_>
          <internalNodes>
            0 -1 309 3.7733497447334230e-04</internalNodes>
          <leafValues>
            2.1341344714164734e-01 -7.7282327413558960e-01</leafValues></_>
        <_>
          <internalNodes>
            0 -1 281 -3.9271712303161621e-03</internalNodes>
          <leafValues>
            1.5259277820587158e-01 -7.6941406726837158e-01</leafValues></_>
        <_>
          <internalNodes>
            0 -1 291 -6.3593528466299176e-04</internalNodes>
          <leafValues>
            1.4998689293861389e-01 -7.3548209667205811e-01</leafValues></_>
        <_>
          <internalNodes>
            0 -1 341 3.8639031117781997e-04</internalNodes>
          <leafValues>
            1.7264997959136963e-01 -6.2838155031204224e-01</leafValues></_>
        <_>
          <internalNodes>
            0 -1 14 2.3036247491836548e-01</internalNodes>
          <leafValues>
            -2.3307780921459198e-01 5.3728908300399780e-01</leafValues></_>
        <_>
          <internalNodes>
            0 -1 137 -6.1952305259183049e-04</internalNodes>
          <leafValues>
            3.5431775450706482e-01 -3.9388161897659302e-01</leafValues></_></weakClassifiers></_>
    <!-- stage 2 -->
    <_>
      <maxWeakCount>13</maxWeakCount>
      <stageThreshold>-1.2802759408950806e+00</stageThreshold>
      <weakClassifiers>
        <_>
          <internalNodes>
            0 -1 208 3.9531953632831573e-02</internalNodes>
          <leafValues>
            -2.1962264180183411e-01 7.0430380105972290e-01</leafValues></_>
        <_>
          <internalNodes>
            0 -1 49 6.3224211335182190e-03</internalNodes>
          <leafValues>
            -3.4767001867294312e-01 4.7398811578750610e-01</leafValues></_>
        <_>
          <internalNodes>
            0 -1 196 -2.2179263178259134e-03</internalNodes>
          <leafValues>
            2.7679637074470520e-01 -6.1649769544601440e-01</leafValues></_>
        <_>
          <internalNodes>
            0 -1 127 2.3234531283378601e-02</internalNodes>
          <leafValues>
            -5.7898890972137451e-01 2.5142318010330200e-01</leafValues></_>
        <_>
          <internalNodes>
            0 -1 93 2.3968545719981194e-03</internalNodes>
          <leafValues>
            -3.0641877651214600e-01 3.3807712793350220e-01</leafValues></_>
        <_>
          <internalNodes>
            0 -1 296 -1.6342282760888338e-03</internalNodes>
          <leafValues>
            -7.9146033525466919e-01 1.3171640038490295e-01</leafValues></_>
        <_>
          <internalNodes>
            0 -1 301 2.2136094048619270e-03</internalNodes>
          <leafValues>
            5.2750620990991592e-02 -7.9218554496765137e-01</leafValues></_>
        <_>
          <internalNodes>
            0 -1 298 -6.3986657187342644e-03</internalNodes>
          <leafValues>
            -8.3484780788421631e-01 1.0275784134864807e-01</leafValues></_>
        <_>
          <internalNodes>
            0 -1 198 4.5165035407990217e-04</internalNodes>
          <leafValues>
            1.4511057734489441e-01 -6.7735999822616577e-01</leafValues></_>
        <_>
          <internalNodes>
            0 -1 223 -1.3889207504689693e-02</internalNodes>
          <leafValues>
            1.7539906501770020e-01 -5.4669648408889771e-01</leafValues></_>
        <_>
          <internalNodes>
            0 -1 88 -7.7206979040056467e-04</internalNodes>
          <leafValues>
            3.7127789855003357e-01 -2.4880164861679077e-01</leafValues></_>
        <_>
          <internalNodes>
            0 -1 255 7.5434730388224125e-04</internalNodes>
          <leafValues>
            1.5621285140514374e-01 -6.2583380937576294e-01</leafValues></_>
        <_>
          <internalNodes>
            0 -1 157 2.2935055196285248e-02</internalNodes>
          <leafValues>
            1.0257787257432938e-01 -7.4357116222381592e-01</leafValues></_></weakClassifiers></_>
    <!-- stage 3 -->
    <_>
      <maxWeakCount>17</maxWeakCount>
      <stageThreshold>-1.0783282518386841e+00</stageThreshold>
      <weakClassifiers>
        <_>
          <internalNodes>
            0 -1 263 1.3145988807082176e-02</internalNodes>
          <leafValues>
            -2.9281768202781677e-01 6.4046972990036011e-01</leafValues></_>
        <_>
          <internalNodes>
            0 -1 153 1.4626631513237953e-02</internalNodes>
          <leafValues>
            -4.8542818427085876e-01 3.4965741634368896e-01</leafValues></_>
        <_>
          <internalNodes>
            0 -1 108 -1.0022274218499660e-03</internalNodes>
          <leafValues>
            3.6341133713722229e-01 -3.1522417068481445e-01</leafValues></_>
        <_>
          <internalNodes>
            0 -1 327 -2.4470654316246510e-03</internalNodes>
          <leafValues>
            1.6396522521972656e-01 -6.4208614826202393e-01</leafValues></_>
        <_>
          <internalNodes>
            0 -1 437 -9.1070623602718115e-04</internalNodes>
          <leafValues>
            3.7364107370376587e-01 -2.6799410581588745e-01</leafValues></_>
        <_>
          <internalNodes>
            0 -1 254 -1.6054178122431040e-03</internalNodes>
          <leafValues>
            -7.9187363386154175e-01 1.1541840434074402e-01</leafValues></_>
        <_>
          <internalNodes>
            0 -1 309 -2.3385039530694485e-03</internalNodes>
          <leafValues>
            -8.6154472827911377e-01 3.6928370594978333e-02</leafValues></_>
        <_>
          <internalNodes>
            0 -1 69 3.4780830144882202e-02</internalNodes>
          <leafValues>
            -2.3856112360954285e-01 3.7050548195838928e-01</leafValues></_>
        <_>
          <internalNodes>
            0 -1 304 -2.2913920693099499e-03</internalNodes>
          <leafValues>
            -8.4507071971893311e-01 1.1281453818082809e-01</leafValues></_>
        <_>
          <internalNodes>
            0 -1 230 -1.2940561864525080e-03</internalNodes>
          <leafValues>
            9.1812416911125183e-02 -7.2208076715469360e-01</leafValues></_>
        <_>
          <internalNodes>
            0 -1 241 -5.5223878007382154e-04</internalNodes>
          <leafValues>
            1.4580351114273071e-01 -4.7887423634529114e-01</leafValues></_>
        <_>
          <internalNodes>
            0 -1 294 -3.4620040096342564e-03</internalNodes>
          <leafValues>
            -8.0065727233886719e-01 1.0662555694580078e-01</leafValues></_>
        <_>
          <internalNodes>
            0 -1 116 4.6337302774190903e-04</internalNodes>
          <leafValues>
            -2.3235732316970825e-01 3.7222445011138916e-01</leafValues></_>
        <_>
          <internalNodes>
            0 -1 125 2.4395859800279140e-03</internalNodes>
          <leafValues>
            -1.7764024436473846e-01 4.2263907194137573e-01</leafValues></_>
        <_>
          <internalNodes>
            0 -1 98 -9.9740480072796345e-04</internalNodes>
          <leafValues>
            2.1962289512157440e-01 -3.4155985713005066e-01</leafValues></_>
        <_>
          <internalNodes>
            0 -1 217 -3.6894194781780243e-03</internalNodes>
          <leafValues>
            -7.4219703674316406e-01 1.1390078067779541e-01</leafValues></_>
        <_>
          <internalNodes>
            0 -1 337 -6.5116088080685586e-05</internalNodes>
          <leafValues>
            1.4528049528598785e-01 -5.3169059753417969e-01</leafValues></_></weakClassifiers></_>
    <!-- stage 4 -->
    <_>
      <maxWeakCount>21</maxWeakCount>
      <stageThreshold>-1.0826346874237061e+00</stageThreshold>
      <weakClassifiers>
        <_>
          <internalNodes>
            0 -1 142 2.1265748888254166e-02</internalNodes>
          <leafValues>
            -9.4108648598194122e-02 6.6331952810287476e-01</leafValues></_>
        <_>
          <internalNodes>
            0 -1 72 5.0377003848552704e-02</internalNodes>
          <leafValues>
            -3.6783909797668457e-01 3.6992341279983521e-01</leafValues></_>
        <_>
          <internalNodes>
            0 -1 101 -1.4316090382635593e-03</internalNodes>
          <leafValues>
            3.3758038282394409e-01 -2.8458163142204285e-01</leafValues></_>
        <_>
          <internalNodes>
            0 -1 247 4.2320694774389267e-04</internalNodes>
          <leafValues>
            1.2176658958196640e-01 -7.4398660659790039e-01</leafValues></_>
        <_>
          <internalNodes>
            0 -1 394 -2.7142539620399475e-03</internalNodes>
          <leafValues>
            5.6007903814315796e-01 -1.7143404483795166e-01</leafValues></_>
        <_>
          <internalNodes>
            0 -1 343 1.5559666790068150e-03</internalNodes>
          <leafValues>
            7.6024495065212250e-02 -8.3041822910308838e-01</leafValues></_>
        <_>
          <internalNodes>
            0 -1 240 2.7547933859750628e-04</internalNodes>
          <leafValues>
            1.5330220758914948e-01 -5.1155358552932739e-01</leafValues></_>
        <_>
          <internalNodes>
            0 -1 307 -3.2879766076803207e-03</internalNodes>
          <leafValues>
            -8.8629585504531860e-01 8.8826410472393036e-02</leafValues></_>
        <_>
          <internalNodes>
            0 -1 51 -4.9426602199673653e-03</internalNodes>
          <leafValues>
            4.7738015651702881e-01 -1.8399801850318909e-01</leafValues></_>
        <_>
          <internalNodes>
            0 -1 139 -4.8493919894099236e-04</internalNodes>
          <leafValues>
            3.3191308379173279e-01 -2.5009271502494812e-01</leafValues></_>
        <_>
          <internalNodes>
            0 -1 436 -4.2491906788200140e-04</internalNodes>
          <leafValues>
            2.4328166246414185e-01 -2.9400649666786194e-01</leafValues></_>
        <_>
          <internalNodes>
            0 -1 292 -2.1793011110275984e-03</internalNodes>
          <leafValues>
            1.1509257555007935e-01 -6.5977001190185547e-01</leafValues></_>
        <_>
          <internalNodes>
            0 -1 214 -5.7006932795047760e-02</internalNodes>
          <leafValues>
            -5.0137257575988770e-01 1.2916409969329834e-01</leafValues></_>
        <_>
          <internalNodes>
            0 -1 255 7.3873030487447977e-04</internalNodes>
          <leafValues>
            1.2144517153501511e-01 -5.7548922300338745e-01</leafValues></_>
        <_>
          <internalNodes>
            0 -1 109 -8.9287377893924713e-02</internalNodes>
          <leafValues>
            5.0903689861297607e-01 -1.4128433167934418e-01</leafValues></_>
        <_>
          <internalNodes>
            0 -1 206 4.1559024248272181e-04</internalNodes>
          <leafValues>
            -2.0190592110157013e-01 3.4068280458450317e-01</leafValues></_>
        <_>
          <internalNodes>
            0 -1 276 6.6905270796269178e-04</internalNodes>
          <leafValues>
            -2.5015127658843994e-01 2.4611450731754303e-01</leafValues></_>
        <_>
          <internalNodes>
            0 -1 262 -2.2258106619119644e-03</internalNodes>
          <leafValues>
            3.4164631366729736e-01 -2.0828026533126831e-01</leafValues></_>
        <_>
          <internalNodes>
            0 -1 284 1.8436886603012681e-03</internalNodes>
          <leafValues>
            9.0389847755432129e-02 -7.7691394090652466e-01</leafValues></_>
        <_>
          <internalNodes>
            0 -1 346 -1.3044036459177732e-03</internalNodes>
          <leafValues>
            -8.6321932077407837e-01 6.3992723822593689e-02</leafValues></_>
        <_>
          <internalNodes>
            0 -1 287 -3.3190636895596981e-03</internalNodes>
          <leafValues>
            -8.0422931909561157e-01 6.3123553991317749e-02</leafValues></_></weakClassifiers></_>
    <!-- stage 5 -->
    <_>
      <maxWeakCount>20</maxWeakCount>
      <stageThreshold>-9.7873377799987793e-01</stageThreshold>
      <weakClassifiers>
        <_>
          <internalNodes>
            0 -1 82 1.4896361157298088e-02</internalNodes>
          <leafValues>
            -4.3533697724342346e-01 5.0550794601440430e-01</leafValues></_>
        <_>
          <internalNodes>
            0 -1 274 -3.4483629278838634e-03</internalNodes>
          <leafValues>
            2.4076895415782928e-01 -5.8583641052246094e-01</leafValues></_>
        <_>
          <internalNodes>
            0 -1 103 -6.5534133464097977e-03</internalNodes>
          <leafValues>
            4.4879722595214844e-01 -2.7671709656715393e-01</leafValues></_>
        <_>
          <internalNodes>
            0 -1 328 3.0915025854483247e-04</internalNodes>
          <leafValues>
            -4.4037896394729614e-01 2.3231434822082520e-01</leafValues></_>
        <_>
          <internalNodes>
            0 -1 86 -3.3017882378771901e-04</internalNodes>
          <leafValues>
            3.5740834474563599e-01 -2.6914352178573608e-01</leafValues></_>
        <_>
          <internalNodes>
            0 -1 7 -6.9771343842148781e-03</internalNodes>
          <leafValues>
            -4.7144439816474915e-01 1.9364988803863525e-01</leafValues></_>
        <_>
          <internalNodes>
            0 -1 235 -1.7808950506150723e-03</internalNodes>
          <leafValues>
            1.6323801875114441e-01 -5.0405895709991455e-01</leafValues></_>
        <_>
          <internalNodes>
            0 -1 289 -1.3008307665586472e-02</internalNodes>
          <leafValues>
            -7.6437789201736450e-01 1.1522614210844040e-01</leafValues></_>
        <_>
          <internalNodes>
            0 -1 417 1.0451709385961294e-03</internalNodes>
          <leafValues>
            -2.5269412994384766e-01 3.6139804124832153e-01</leafValues></_>
        <_>
          <internalNodes>
            0 -1 17 8.6165107786655426e-03</internalNodes>
          <leafValues>
            -2.7161872386932373e-01 2.7436140179634094e-01</leafValues></_>
        <_>
          <internalNodes>
            0 -1 79 -4.7394530847668648e-03</internalNodes>
          <leafValues>
            -7.0470392704010010e-01 1.0376175493001938e-01</leafValues></_>
        <_>
          <internalNodes>
            0 -1 349 7.7708816388621926e-04</internalNodes>
          <leafValues>
            8.8091462850570679e-02 -7.6240724325180054e-01</leafValues></_>
        <_>
          <internalNodes>
            0 -1 253 1.0342642199248075e-03</internalNodes>
          <leafValues>
            6.8043507635593414e-02 -8.8453936576843262e-01</leafValues></_>
        <_>
          <internalNodes>
            0 -1 258 -6.3761621713638306e-03</internalNodes>
          <leafValues>
            5.6030547618865967e-01 -1.4645418524742126e-01</leafValues></_>
        <_>
          <internalNodes>
            0 -1 356 1.2993063137400895e-04</internalNodes>
          <leafValues>
            -2.6037245988845825e-01 3.2052907347679138e-01</leafValues></_>
        <_>
          <internalNodes>
            0 -1 243 8.0504233483225107e-04</internalNodes>
          <leafValues>
            1.2983292341232300e-01 -4.9870735406875610e-01</leafValues></_>
        <_>
          <internalNodes>
            0 -1 409 8.9364650193601847e-04</internalNodes>
          <leafValues>
            -1.2481684982776642e-01 5.7936185598373413e-01</leafValues></_>
        <_>
          <internalNodes>
            0 -1 64 -2.8728033066727221e-04</internalNodes>
          <leafValues>
            3.6413717269897461e-01 -1.7376106977462769e-01</leafValues></_>
        <_>
          <internalNodes>
            0 -1 237 -8.2750536967068911e-04</internalNodes>
          <leafValues>
            -6.0620987415313721e-01 1.0481654852628708e-01</leafValues></_>
        <_>
          <internalNodes>
            0 -1 135 1.4967652969062328e-03</internalNodes>
          <leafValues>
            -1.6901987791061401e-01 3.7302061915397644e-01</leafValues></_></weakClassifiers></_>
    <!-- stage 6 -->
    <_>
      <maxWeakCount>23</maxWeakCount>
      <stageThreshold>-9.8098820447921753e-01</stageThreshold>
      <weakClassifiers>
        <_>
          <internalNodes>
            0 -1 181 6.7379176616668701e-02</internalNodes>
          <leafValues>
            -9.0751945972442627e-02 5.9956592321395874e-01</leafValues></_>
        <_>
          <internalNodes>
            0 -1 19 1.0159708559513092e-02</internalNodes>
          <leafValues>
            -3.4935304522514343e-01 3.4853133559226990e-01</leafValues></_>
        <_>
          <internalNodes>
            0 -1 359 -1.0498062707483768e-02</internalNodes>
          <leafValues>
            4.8107871413230896e-01 -1.7823795974254608e-01</leafValues></_>
        <_>
          <internalNodes>
            0 -1 195 -6.5446586813777685e-04</internalNodes>
          <leafValues>
            1.9728243350982666e-01 -4.7472283244132996e-01</leafValues></_>
        <_>
          <internalNodes>
            0 -1 412 1.1759711196646094e-03</internalNodes>
          <leafValues>
            -2.2918072342872620e-01 3.6035183072090149e-01</leafValues></_>
        <_>
          <internalNodes>
            0 -1 305 -2.0418374333530664e-03</internalNodes>
          <leafValues>
            -8.4919387102127075e-01 9.2257447540760040e-02</leafValues></_>
        <_>
          <internalNodes>
            0 -1 288 -1.7380439676344395e-03</internalNodes>
          <leafValues>
            2.5482380390167236e-01 -2.9944160580635071e-01</leafValues></_>
        <_>
          <internalNodes>
            0 -1 242 -3.6721613723784685e-03</internalNodes>
          <leafValues>
            2.5517722964286804e-01 -3.4304958581924438e-01</leafValues></_>
        <_>
          <internalNodes>
            0 -1 130 -4.6000897884368896e-02</internalNodes>
          <leafValues>
            -6.0625994205474854e-01 1.1897163838148117e-01</leafValues></_>
        <_>
          <internalNodes>
            0 -1 253 4.4761298340745270e-04</internalNodes>
          <leafValues>
            1.0865978896617889e-01 -6.1915314197540283e-01</leafValues></_>
        <_>
          <internalNodes>
            0 -1 396 1.9102373626083136e-03</internalNodes>
          <leafValues>
            -1.5984000265598297e-01 4.1173368692398071e-01</leafValues></_>
        <_>
          <internalNodes>
            0 -1 339 -1.5940966550260782e-03</internalNodes>
          <leafValues>
            1.9112120568752289e-01 -3.6993518471717834e-01</leafValues></_>
        <_>
          <internalNodes>
            0 -1 50 -3.8273233920335770e-02</internalNodes>
          <leafValues>
            -8.8063436746597290e-01 7.1141138672828674e-02</leafValues></_>
        <_>
          <internalNodes>
            0 -1 154 -8.0083956709131598e-04</internalNodes>
          <leafValues>
            3.0210208892822266e-01 -2.2154946625232697e-01</leafValues></_>
        <_>
          <internalNodes>
            0 -1 303 -1.8324750708416104e-03</internalNodes>
          <leafValues>
            -9.0719926357269287e-01 6.6264271736145020e-02</leafValues></_>
        <_>
          <internalNodes>
            0 -1 179 -2.3894576355814934e-02</internalNodes>
          <leafValues>
            8.5409808158874512e-01 -9.9657513201236725e-02</leafValues></_>
        <_>
          <internalNodes>
            0 -1 334 -1.6383549664169550e-03</internalNodes>
          <leafValues>
            1.4752639830112457e-01 -5.6709253787994385e-01</leafValues></_>
        <_>
          <internalNodes>
            0 -1 300 5.2447040798142552e-04</internalNodes>
          <leafValues>
            1.0710158944129944e-01 -5.6575101613998413e-01</leafValues></_>
        <_>
          <internalNodes>
            0 -1 90 6.3578607514500618e-03</internalNodes>
          <leafValues>
            -1.4479038119316101e-01 5.6061261892318726e-01</leafValues></_>
        <_>
          <internalNodes>
            0 -1 437 -1.1767202522605658e-03</internalNodes>
          <leafValues>
            3.7690421938896179e-01 -2.0322515070438385e-01</leafValues></_>
        <_>
          <internalNodes>
            0 -1 288 -7.8802574425935745e-03</internalNodes>
          <leafValues>
            -9.1517812013626099e-01 6.9678530097007751e-02</leafValues></_>
        <_>
          <internalNodes>
            0 -1 117 -1.3494031503796577e-02</internalNodes>
          <leafValues>
            8.1153661012649536e-01 -8.9402601122856140e-02</leafValues></_>
        <_>
          <internalNodes>
            0 -1 77 4.3901905417442322e-02</internalNodes>
          <leafValues>
            9.4996884465217590e-02 -7.6298874616622925e-01</leafValues></_></weakClassifiers></_>
    <!-- stage 7 -->
    <_>
      <maxWeakCount>29</maxWeakCount>
      <stageThreshold>-1.0735962390899658e+00</stageThreshold>
      <weakClassifiers>
        <_>
          <internalNodes>
            0 -1 142 2.3212257772684097e-02</internalNodes>
          <leafValues>
            -5.7471264153718948e-03 6.2686568498611450e-01</leafValues></_>
        <_>
          <internalNodes>
            0 -1 92 9.7729358822107315e-04</internalNodes>
          <leafValues>
            -4.4201752543449402e-01 2.5667929649353027e-01</leafValues></_>
        <_>
          <internalNodes>
            0 -1 173 -2.1359650418162346e-03</internalNodes>
          <leafValues>
            2.5040653347969055e-01 -3.6765843629837036e-01</leafValues></_>
        <_>
          <internalNodes>
            0 -1 434 -2.4982576724141836e-03</internalNodes>
          <leafValues>
            5.6012839078903198e-01 -1.5424099564552307e-01</leafValues></_>
        <_>
          <internalNodes>
            0 -1 251 -1.2079607695341110e-03</internalNodes>
          <leafValues>
            -7.6933896541595459e-01 9.0098276734352112e-02</leafValues></_>
        <_>
          <internalNodes>
            0 -1 185 -1.0970601812005043e-02</internalNodes>
          <leafValues>
            5.0210893154144287e-01 -1.5474510192871094e-01</leafValues></_>
        <_>
          <internalNodes>
            0 -1 47 2.4381969124078751e-03</internalNodes>
          <leafValues>
            -1.9938313961029053e-01 3.1089767813682556e-01</leafValues></_>
        <_>
          <internalNodes>
            0 -1 383 -2.8706493321806192e-04</internalNodes>
          <leafValues>
            2.4747751653194427e-01 -2.5252705812454224e-01</leafValues></_>
        <_>
          <internalNodes>
            0 -1 83 -6.4826235175132751e-02</internalNodes>
          <leafValues>
            -7.0080447196960449e-01 7.8082151710987091e-02</leafValues></_>
        <_>
          <internalNodes>
            0 -1 298 -5.1241985056549311e-04</internalNodes>
          <leafValues>
            1.0116793960332870e-01 -5.3664755821228027e-01</leafValues></_>
        <_>
          <internalNodes>
            0 -1 352 1.0283633600920439e-03</internalNodes>
          <leafValues>
            6.8214558064937592e-02 -7.4923586845397949e-01</leafValues></_>
        <_>
          <internalNodes>
            0 -1 312 5.9387424698797986e-05</internalNodes>
          <leafValues>
            1.5959006547927856e-01 -3.6637610197067261e-01</leafValues></_>
        <_>
          <internalNodes>
            0 -1 54 -4.6919193118810654e-02</internalNodes>
          <leafValues>
            -7.2687554359436035e-01 7.2806946933269501e-02</leafValues></_>
        <_>
          <internalNodes>
            0 -1 33 -3.0937457922846079e-03</internalNodes>
          <leafValues>
            5.6331181526184082e-01 -1.1192169040441513e-01</leafValues></_>
        <_>
          <internalNodes>
            0 -1 338 -2.8372332453727722e-03</internalNodes>
          <leafValues>
            -9.2319774627685547e-01 7.5731180608272552e-02</leafValues></_>
        <_>
          <internalNodes>
            0 -1 228 -3.9876597002148628e-03</internalNodes>
          <leafValues>
            2.3975220322608948e-01 -2.3804019391536713e-01</leafValues></_>
        <_>
          <internalNodes>
            0 -1 221 1.1176660656929016e-02</internalNodes>
          <leafValues>
            -1.4239823818206787e-01 4.9743002653121948e-01</leafValues></_>
        <_>
          <internalNodes>
            0 -1 216 -1.4340430498123169e-03</internalNodes>
          <leafValues>
            -5.1974177360534668e-01 1.1451768130064011e-01</leafValues></_>
        <_>
          <internalNodes>
            0 -1 309 -2.5138244964182377e-03</internalNodes>
          <leafValues>
            -8.1112056970596313e-01 6.3077412545681000e-02</leafValues></_>
        <_>
          <internalNodes>
            0 -1 3 -2.0593713968992233e-02</internalNodes>
          <leafValues>
            -6.2036651372909546e-01 8.0861359834671021e-02</leafValues></_>
        <_>
          <internalNodes>
            0 -1 326 5.3814693819731474e-04</internalNodes>
          <leafValues>
            -2.2036851942539215e-01 2.4300727248191833e-01</leafValues></_>
        <_>
          <internalNodes>
            0 -1 399 2.6919328956864774e-04</internalNodes>
          <leafValues>
            -1.9079782068729401e-01 2.9578411579132080e-01</leafValues></_>
        <_>
          <internalNodes>
            0 -1 264 -2.5673746131360531e-03</internalNodes>
          <leafValues>
            -7.4820375442504883e-01 7.6527908444404602e-02</leafValues></_>
        <_>
          <internalNodes>
            0 -1 78 -3.9575103437528014e-04</internalNodes>
          <leafValues>
            3.6199912428855896e-01 -1.5245051681995392e-01</leafValues></_>
        <_>
          <internalNodes>
            0 -1 212 -4.7737490385770798e-02</internalNodes>
          <leafValues>
            -5.1586812734603882e-01 1.1097022891044617e-01</leafValues></_>
        <_>
          <internalNodes>
            0 -1 247 9.8272284958511591e-05</internalNodes>
          <leafValues>
            1.0658878087997437e-01 -4.6771410107612610e-01</leafValues></_>
        <_>
          <internalNodes>
            0 -1 398 -2.8484035283327103e-04</internalNodes>
          <leafValues>
            3.2386797666549683e-01 -1.6887772083282471e-01</leafValues></_>
        <_>
          <internalNodes>
            0 -1 421 5.9563592076301575e-03</internalNodes>
          <leafValues>
            8.3421036601066589e-02 -6.7744290828704834e-01</leafValues></_>
        <_>
          <internalNodes>
            0 -1 428 -7.9007609747350216e-04</internalNodes>
          <leafValues>
            3.6000305414199829e-01 -1.4685611426830292e-01</leafValues></_></weakClassifiers></_>
    <!-- stage 8 -->
    <_>
      <maxWeakCount>25</maxWeakCount>
      <stageThreshold>-8.7871450185775757e-01</stageThreshold>
      <weakClassifiers>
        <_>
          <internalNodes>
            0 -1 80 4.6484865248203278e-02</internalNodes>
          <leafValues>
            -1.6008315980434418e-01 5.6624138355255127e-01</leafValues></_>
        <_>
          <internalNodes>
            0 -1 105 -3.6124153994023800e-03</internalNodes>
          <leafValues>
            4.1338223218917847e-01 -2.6112300157546997e-01</leafValues></_>
        <_>
          <internalNodes>
            0 -1 53 2.8049141168594360e-02</internalNodes>
          <leafValues>
            -5.3679537773132324e-01 1.7478971183300018e-01</leafValues></_>
        <_>
          <internalNodes>
            0 -1 397 1.7598310951143503e-03</internalNodes>
          <leafValues>
            -2.4408434331417084e-01 2.8536888957023621e-01</leafValues></_>
        <_>
          <internalNodes>
            0 -1 238 -3.7517683813348413e-04</internalNodes>
          <leafValues>
            1.5547916293144226e-01 -4.2495816946029663e-01</leafValues></_>
        <_>
          <internalNodes>
            0 -1 227 -3.1413063406944275e-03</internalNodes>
          <leafValues>
            2.6623657345771790e-01 -2.5043818354606628e-01</leafValues></_>
        <_>
          <internalNodes>
            0 -1 60 -6.2106817960739136e-02</internalNodes>
          <leafValues>
            -6.6321945190429688e-01 9.1640241444110870e-02</leafValues></_>
        <_>
          <internalNodes>
            0 -1 8 -8.8003687560558319e-03</internalNodes>
          <leafValues>
            -5.9974753856658936e-01 1.0669577866792679e-01</leafValues></_>
        <_>
          <internalNodes>
            0 -1 295 -1.6484220977872610e-03</internalNodes>
          <leafValues>
            -7.9498338699340820e-01 3.4262236207723618e-02</leafValues></_>
        <_>
          <internalNodes>
            0 -1 102 -1.6088525298982859e-03</internalNodes>
          <leafValues>
            2.3988552391529083e-01 -2.5893536210060120e-01</leafValues></_>
        <_>
          <internalNodes>
            0 -1 303 1.6648219898343086e-03</internalNodes>
          <leafValues>
            8.2756042480468750e-02 -6.9284677505493164e-01</leafValues></_>
        <_>
          <internalNodes>
            0 -1 167 6.2542976811528206e-03</internalNodes>
          <leafValues>
            -1.5967357158660889e-01 3.9675050973892212e-01</leafValues></_>
        <_>
          <internalNodes>
            0 -1 209 -1.5013979747891426e-02</internalNodes>
          <leafValues>
            4.4533467292785645e-01 -1.3995681703090668e-01</leafValues></_>
        <_>
          <internalNodes>
            0 -1 166 -6.0301343910396099e-04</internalNodes>
          <leafValues>
            3.8257867097854614e-01 -1.7471164464950562e-01</leafValues></_>
        <_>
          <internalNodes>
            0 -1 11 -6.4040020108222961e-02</internalNodes>
          <leafValues>
            -5.2540653944015503e-01 1.1016738414764404e-01</leafValues></_>
        <_>
          <internalNodes>
            0 -1 351 5.6298056733794510e-05</internalNodes>
          <leafValues>
            1.3922509551048279e-01 -3.4834310412406921e-01</leafValues></_>
        <_>
          <internalNodes>
            0 -1 163 -3.5144433379173279e-02</internalNodes>
          <leafValues>
            -5.0249785184860229e-01 1.0021448135375977e-01</leafValues></_>
        <_>
          <internalNodes>
            0 -1 76 -2.1744947880506516e-02</internalNodes>
          <leafValues>
            -8.4681159257888794e-01 5.3086131811141968e-02</leafValues></_>
        <_>
          <internalNodes>
            0 -1 438 3.3195675350725651e-03</internalNodes>
          <leafValues>
            -1.6561797261238098e-01 3.3405753970146179e-01</leafValues></_>
        <_>
          <internalNodes>
            0 -1 248 9.1692642308771610e-04</internalNodes>
          <leafValues>
            6.5308436751365662e-02 -7.9749715328216553e-01</leafValues></_>
        <_>
          <internalNodes>
            0 -1 433 -1.2354876380413771e-03</internalNodes>
          <leafValues>
            -7.7389538288116455e-01 5.6559167802333832e-02</leafValues></_>
        <_>
          <internalNodes>
            0 -1 197 2.3040396627038717e-04</internalNodes>
          <leafValues>
            1.2430334836244583e-01 -4.1078248620033264e-01</leafValues></_>
        <_>
          <internalNodes>
            0 -1 389 -2.1516289561986923e-02</internalNodes>
          <leafValues>
            -7.6886367797851562e-01 6.7894116044044495e-02</leafValues></_>
        <_>
          <internalNodes>
            0 -1 272 5.0876976456493139e-04</internalNodes>
          <leafValues>
            -2.1000726521015167e-01 2.3408630490303040e-01</leafValues></_>
        <_>
          <internalNodes>
            0 -1 371 -5.6321192532777786e-03</internalNodes>
          <leafValues>
            -6.9150215387344360e-01 7.4583306908607483e-02</leafValues></_></weakClassifiers></_>
    <!-- stage 9 -->
    <_>
      <maxWeakCount>29</maxWeakCount>
      <stageThreshold>-9.9740850925445557e-01</stageThreshold>
      <weakClassifiers>
        <_>
          <internalNodes>
            0 -1 129 3.8958504796028137e-02</internalNodes>
          <leafValues>
            -1.6584157943725586e-01 5.1733577251434326e-01</leafValues></_>
        <_>
          <internalNodes>
            0 -1 414 4.6869525685906410e-03</internalNodes>
          <leafValues>
            -3.3162096142768860e-01 3.0277928709983826e-01</leafValues></_>
        <_>
          <internalNodes>
            0 -1 87 -1.1418851790949702e-03</internalNodes>
          <leafValues>
            3.5753417015075684e-01 -2.3438419401645660e-01</leafValues></_>
        <_>
          <internalNodes>
            0 -1 367 1.7103142454288900e-04</internalNodes>
          <leafValues>
            -3.3141541481018066e-01 2.6908254623413086e-01</leafValues></_>
        <_>
          <internalNodes>
            0 -1 325 -1.8286057747900486e-03</internalNodes>
          <leafValues>
            4.0707644820213318e-01 -2.1282374858856201e-01</leafValues></_>
        <_>
          <internalNodes>
            0 -1 183 2.3500863462686539e-02</internalNodes>
          <leafValues>
            -1.3711476325988770e-01 5.7231599092483521e-01</leafValues></_>
        <_>
          <internalNodes>
            0 -1 345 -4.3864751933142543e-04</internalNodes>
          <leafValues>
            1.4636065065860748e-01 -5.1413035392761230e-01</leafValues></_>
        <_>
          <internalNodes>
            0 -1 314 6.3422252424061298e-04</internalNodes>
          <leafValues>
            7.9752616584300995e-02 -6.4395391941070557e-01</leafValues></_>
        <_>
          <internalNodes>
            0 -1 213 -5.8492392301559448e-02</internalNodes>
          <leafValues>
            -7.4638760089874268e-01 7.2957344353199005e-02</leafValues></_>
        <_>
          <internalNodes>
            0 -1 9 -4.6948166564106941e-03</internalNodes>
          <leafValues>
            -5.6725722551345825e-01 1.0988727211952209e-01</leafValues></_>
        <_>
          <internalNodes>
            0 -1 323 2.3487093858420849e-03</internalNodes>
          <leafValues>
            6.8092793226242065e-02 -8.7213778495788574e-01</leafValues></_>
        <_>
          <internalNodes>
            0 -1 112 -2.9014854226261377e-04</internalNodes>
          <leafValues>
            2.4454809725284576e-01 -2.4054412543773651e-01</leafValues></_>
        <_>
          <internalNodes>
            0 -1 410 3.7370348582044244e-04</internalNodes>
          <leafValues>
            -2.2095327079296112e-01 2.9403170943260193e-01</leafValues></_>
        <_>
          <internalNodes>
            0 -1 273 -7.9994654515758157e-04</internalNodes>
          <leafValues>
            -7.5143730640411377e-01 7.5550526380538940e-02</leafValues></_>
        <_>
          <internalNodes>
            0 -1 347 -2.1334523335099220e-03</internalNodes>
          <leafValues>
            -6.4751684665679932e-01 7.5624383985996246e-02</leafValues></_>
        <_>
          <internalNodes>
            0 -1 73 -1.0822165012359619e-01</internalNodes>
          <leafValues>
            -8.5953986644744873e-01 6.3512213528156281e-02</leafValues></_>
        <_>
          <internalNodes>
            0 -1 93 2.3979803081601858e-03</internalNodes>
          <leafValues>
            -2.7244925498962402e-01 2.0592261850833893e-01</leafValues></_>
        <_>
          <internalNodes>
            0 -1 344 1.4457274228334427e-03</internalNodes>
          <leafValues>
            7.7032953500747681e-02 -6.7238336801528931e-01</leafValues></_>
        <_>
          <internalNodes>
            0 -1 138 -1.2258475180715322e-03</internalNodes>
          <leafValues>
            3.4836921095848083e-01 -1.5322141349315643e-01</leafValues></_>
        <_>
          <internalNodes>
            0 -1 259 -1.6321275383234024e-02</internalNodes>
          <leafValues>
            4.9838745594024658e-01 -1.0406153649091721e-01</leafValues></_>
        <_>
          <internalNodes>
            0 -1 222 -1.4484683051705360e-03</internalNodes>
          <leafValues>
            7.8962206840515137e-02 -8.0793362855911255e-01</leafValues></_>
        <_>
          <internalNodes>
            0 -1 374 2.5041977642104030e-04</internalNodes>
          <leafValues>
            -2.0123673975467682e-01 2.7704659104347229e-01</leafValues></_>
        <_>
          <internalNodes>
            0 -1 158 -9.4528105109930038e-03</internalNodes>
          <leafValues>
            3.1188526749610901e-01 -1.9207675755023956e-01</leafValues></_>
        <_>
          <internalNodes>
            0 -1 250 -1.3956172624602914e-03</internalNodes>
          <leafValues>
            -6.4329099655151367e-01 9.7584873437881470e-02</leafValues></_>
        <_>
          <internalNodes>
            0 -1 220 1.5963742043823004e-03</internalNodes>
          <leafValues>
            7.5095236301422119e-02 -6.3212060928344727e-01</leafValues></_>
        <_>
          <internalNodes>
            0 -1 274 -2.0845206454396248e-03</internalNodes>
          <leafValues>
            8.8888674974441528e-02 -6.2007963657379150e-01</leafValues></_>
        <_>
          <internalNodes>
            0 -1 422 -3.7992154248058796e-03</internalNodes>
          <leafValues>
            2.2834281623363495e-01 -2.3324336111545563e-01</leafValues></_>
        <_>
          <internalNodes>
            0 -1 418 1.0165285784751177e-03</internalNodes>
          <leafValues>
            7.0349782705307007e-02 -7.2450876235961914e-01</leafValues></_>
        <_>
          <internalNodes>
            0 -1 27 2.4949980434030294e-03</internalNodes>
          <leafValues>
            8.1498935818672180e-02 -5.4391640424728394e-01</leafValues></_></weakClassifiers></_>
    <!-- stage 10 -->
    <_>
      <maxWeakCount>31</maxWeakCount>
      <stageThreshold>-9.6277916431427002e-01</stageThreshold>
      <weakClassifiers>
        <_>
          <internalNodes>
            0 -1 201 -3.4567387774586678e-03</internalNodes>
          <leafValues>
            -5.5477029085159302e-01 4.2583730816841125e-01</leafValues></_>
        <_>
          <internalNodes>
            0 -1 323 1.4183961320668459e-04</internalNodes>
          <leafValues>
            -3.9838087558746338e-01 2.7958700060844421e-01</leafValues></_>
        <_>
          <internalNodes>
            0 -1 29 8.7769026868045330e-04</internalNodes>
          <leafValues>
            -4.7555696964263916e-01 1.6485762596130371e-01</leafValues></_>
        <_>
          <internalNodes>
            0 -1 150 5.9902615845203400e-02</internalNodes>
          <leafValues>
            -1.9796933233737946e-01 3.9883807301521301e-01</leafValues></_>
        <_>
          <internalNodes>
            0 -1 204 9.4138376880437136e-04</internalNodes>
          <leafValues>
            1.2558881938457489e-01 -5.7882493734359741e-01</leafValues></_>
        <_>
          <internalNodes>
            0 -1 113 -3.2371177803725004e-04</internalNodes>
          <leafValues>
            2.3171973228454590e-01 -3.1692552566528320e-01</leafValues></_>
        <_>
          <internalNodes>
            0 -1 382 -8.5872568888589740e-04</internalNodes>
          <leafValues>
            2.2793994843959808e-01 -2.9019385576248169e-01</leafValues></_>
        <_>
          <internalNodes>
            0 -1 75 1.0091538541018963e-02</internalNodes>
          <leafValues>
            1.2324973940849304e-01 -4.8814645409584045e-01</leafValues></_>
        <_>
          <internalNodes>
            0 -1 111 -1.8076659762300551e-04</internalNodes>
          <leafValues>
            3.0423861742019653e-01 -2.1396784484386444e-01</leafValues></_>
        <_>
          <internalNodes>
            0 -1 402 -7.7472737757489085e-04</internalNodes>
          <leafValues>
            3.0422282218933105e-01 -2.0975300669670105e-01</leafValues></_>
        <_>
          <internalNodes>
            0 -1 297 -2.2937841713428497e-03</internalNodes>
          <leafValues>
            -7.7586197853088379e-01 8.5404083132743835e-02</leafValues></_>
        <_>
          <internalNodes>
            0 -1 0 -2.8062645345926285e-02</internalNodes>
          <leafValues>
            -4.2163550853729248e-01 1.4289109408855438e-01</leafValues></_>
        <_>
          <internalNodes>
            0 -1 280 -4.1430927813053131e-03</internalNodes>
          <leafValues>
            7.2188697755336761e-02 -6.9840162992477417e-01</leafValues></_>
        <_>
          <internalNodes>
            0 -1 315 -1.4113120269030333e-03</internalNodes>
          <leafValues>
            -7.2729742527008057e-01 6.4647667109966278e-02</leafValues></_>
        <_>
          <internalNodes>
            0 -1 425 -1.7132585635408759e-03</internalNodes>
          <leafValues>
            4.1804262995719910e-01 -1.5051069855690002e-01</leafValues></_>
        <_>
          <internalNodes>
            0 -1 191 -3.9578750729560852e-03</internalNodes>
          <leafValues>
            5.3633195161819458e-01 -1.0720056295394897e-01</leafValues></_>
        <_>
          <internalNodes>
            0 -1 257 1.8476331024430692e-04</internalNodes>
          <leafValues>
            1.9951805472373962e-01 -3.0254304409027100e-01</leafValues></_>
        <_>
          <internalNodes>
            0 -1 256 -2.2065106779336929e-02</internalNodes>
          <leafValues>
            4.7620356082916260e-01 -1.4699241518974304e-01</leafValues></_>
        <_>
          <internalNodes>
            0 -1 166 -2.5280140107497573e-04</internalNodes>
          <leafValues>
            3.5377427935600281e-01 -1.7556935548782349e-01</leafValues></_>
        <_>
          <internalNodes>
            0 -1 41 -1.5862468630075455e-02</internalNodes>
          <leafValues>
            -5.1511293649673462e-01 1.1301396042108536e-01</leafValues></_>
        <_>
          <internalNodes>
            0 -1 309 2.0208550267852843e-05</internalNodes>
          <leafValues>
            1.2684920430183411e-01 -4.4123494625091553e-01</leafValues></_>
        <_>
          <internalNodes>
            0 -1 245 -1.6638308297842741e-03</internalNodes>
          <leafValues>
            -6.7285048961639404e-01 8.7804518640041351e-02</leafValues></_>
        <_>
          <internalNodes>
            0 -1 357 8.3464768249541521e-04</internalNodes>
          <leafValues>
            -1.6772112250328064e-01 3.6437344551086426e-01</leafValues></_>
        <_>
          <internalNodes>
            0 -1 31 -5.8948779478669167e-03</internalNodes>
          <leafValues>
            5.1232004165649414e-01 -1.1146359145641327e-01</leafValues></_>
        <_>
          <internalNodes>
            0 -1 348 -1.3385775964707136e-03</internalNodes>
          <leafValues>
            -5.6693428754806519e-01 1.0863945633172989e-01</leafValues></_>
        <_>
          <internalNodes>
            0 -1 172 -9.9246520549058914e-03</internalNodes>
          <leafValues>
            4.3721523880958557e-01 -1.3263538479804993e-01</leafValues></_>
        <_>
          <internalNodes>
            0 -1 4 -2.7719596400856972e-03</internalNodes>
          <leafValues>
            -2.7375280857086182e-01 2.2009260952472687e-01</leafValues></_>
        <_>
          <internalNodes>
            0 -1 35 -3.8156667724251747e-03</internalNodes>
          <leafValues>
            5.2231502532958984e-01 -1.2460027635097504e-01</leafValues></_>
        <_>
          <internalNodes>
            0 -1 368 -1.6763953026384115e-03</internalNodes>
          <leafValues>
            -8.1512951850891113e-01 8.1272318959236145e-02</leafValues></_>
        <_>
          <internalNodes>
            0 -1 231 -5.5393585935235023e-03</internalNodes>
          <leafValues>
            2.6778665184974670e-01 -2.0133776962757111e-01</leafValues></_>
        <_>
          <internalNodes>
            0 -1 282 6.0857981443405151e-03</internalNodes>
          <leafValues>
            -1.8831768631935120e-01 3.4544867277145386e-01</leafValues></_></weakClassifiers></_>
    <!-- stage 11 -->
    <_>
      <maxWeakCount>26</maxWeakCount>
      <stageThreshold>-8.3106511831283569e-01</stageThreshold>
      <weakClassifiers>
        <_>
          <internalNodes>
            0 -1 153 3.4402381628751755e-02</internalNodes>
          <leafValues>
            -5.1666665822267532e-02 5.8999997377395630e-01</leafValues></_>
        <_>
          <internalNodes>
            0 -1 71 2.1048229187726974e-02</internalNodes>
          <leafValues>
            -2.2700200974941254e-01 3.4877184033393860e-01</leafValues></_>
        <_>
          <internalNodes>
            0 -1 131 -2.5014119455590844e-04</internalNodes>
          <leafValues>
            2.4653875827789307e-01 -2.4708193540573120e-01</leafValues></_>
        <_>
          <internalNodes>
            0 -1 243 3.9806426502764225e-04</internalNodes>
          <leafValues>
            1.2492987513542175e-01 -5.2155512571334839e-01</leafValues></_>
        <_>
          <internalNodes>
            0 -1 424 3.7928968667984009e-03</internalNodes>
          <leafValues>
            -1.3458184897899628e-01 4.5471706986427307e-01</leafValues></_>
        <_>
          <internalNodes>
            0 -1 66 -3.0114278197288513e-03</internalNodes>
          <leafValues>
            3.3427044749259949e-01 -1.9397790729999542e-01</leafValues></_>
        <_>
          <internalNodes>
            0 -1 198 3.7493847776204348e-04</internalNodes>
          <leafValues>
            8.7096713483333588e-02 -6.4500665664672852e-01</leafValues></_>
        <_>
          <internalNodes>
            0 -1 235 -9.9291512742638588e-03</internalNodes>
          <leafValues>
            -5.7535147666931152e-01 1.1423821747303009e-01</leafValues></_>
        <_>
          <internalNodes>
            0 -1 241 -2.2357050329446793e-03</internalNodes>
          <leafValues>
            1.9776090979576111e-01 -3.3724087476730347e-01</leafValues></_>
        <_>
          <internalNodes>
            0 -1 350 7.4377809651196003e-03</internalNodes>
          <leafValues>
            9.7599513828754425e-02 -6.2374508380889893e-01</leafValues></_>
        <_>
          <internalNodes>
            0 -1 290 -3.6372654139995575e-03</internalNodes>
          <leafValues>
            2.9188853502273560e-01 -2.4071446061134338e-01</leafValues></_>
        <_>
          <internalNodes>
            0 -1 399 3.0208978569135070e-04</internalNodes>
          <leafValues>
            -2.0562329888343811e-01 3.3332994580268860e-01</leafValues></_>
        <_>
          <internalNodes>
            0 -1 15 -2.2561185061931610e-02</internalNodes>
          <leafValues>
            -5.0314980745315552e-01 1.2026650458574295e-01</leafValues></_>
        <_>
          <internalNodes>
            0 -1 128 -4.8814143985509872e-02</internalNodes>
          <leafValues>
            -5.2824592590332031e-01 1.0702001303434372e-01</leafValues></_>
        <_>
          <internalNodes>
            0 -1 141 -1.6539625823497772e-02</internalNodes>
          <leafValues>
            1.4265608787536621e-01 -4.7999247908592224e-01</leafValues></_>
        <_>
          <internalNodes>
            0 -1 95 -1.4775092713534832e-03</internalNodes>
          <leafValues>
            3.8455316424369812e-01 -1.5821757912635803e-01</leafValues></_>
        <_>
          <internalNodes>
            0 -1 386 -9.5890311058610678e-04</internalNodes>
          <leafValues>
            4.0011468529701233e-01 -1.3924179971218109e-01</leafValues></_>
        <_>
          <internalNodes>
            0 -1 365 -4.1543468832969666e-02</internalNodes>
          <leafValues>
            -7.8174054622650146e-01 7.0973627269268036e-02</leafValues></_>
        <_>
          <internalNodes>
            0 -1 18 7.7404240146279335e-03</internalNodes>
          <leafValues>
            -4.9252352118492126e-01 9.8948821425437927e-02</leafValues></_>
        <_>
          <internalNodes>
            0 -1 239 2.3364955559372902e-02</internalNodes>
          <leafValues>
            5.2704613655805588e-02 -8.4386193752288818e-01</leafValues></_>
        <_>
          <internalNodes>
            0 -1 219 1.5922097372822464e-04</internalNodes>
          <leafValues>
            -2.5415378808975220e-01 2.0498074591159821e-01</leafValues></_>
        <_>
          <internalNodes>
            0 -1 267 5.8277216739952564e-03</internalNodes>
          <leafValues>
            6.5210178494453430e-02 -7.5506621599197388e-01</leafValues></_>
        <_>
          <internalNodes>
            0 -1 168 3.4875362180173397e-03</internalNodes>
          <leafValues>
            -1.2577867507934570e-01 4.6139931678771973e-01</leafValues></_>
        <_>
          <internalNodes>
            0 -1 442 4.4564125710166991e-04</internalNodes>
          <leafValues>
            -1.2470870465040207e-01 4.0359121561050415e-01</leafValues></_>
        <_>
          <internalNodes>
            0 -1 271 1.0734613169915974e-04</internalNodes>
          <leafValues>
            -2.6310098171234131e-01 1.8363685905933380e-01</leafValues></_>
        <_>
          <internalNodes>
            0 -1 427 -1.0157607030123472e-03</internalNodes>
          <leafValues>
            3.1974485516548157e-01 -1.7896874248981476e-01</leafValues></_></weakClassifiers></_>
    <!-- stage 12 -->
    <_>
      <maxWeakCount>28</maxWeakCount>
      <stageThreshold>-8.3874714374542236e-01</stageThreshold>
      <weakClassifiers>
        <_>
          <internalNodes>
            0 -1 320 1.7331572249531746e-02</internalNodes>
          <leafValues>
            5.3270399570465088e-02 6.0711932182312012e-01</leafValues></_>
        <_>
          <internalNodes>
            0 -1 44 4.7540324740111828e-03</internalNodes>
          <leafValues>
            -3.3734574913978577e-01 2.5965845584869385e-01</leafValues></_>
        <_>
          <internalNodes>
            0 -1 435 -8.6117867613211274e-04</internalNodes>
          <leafValues>
            2.8150057792663574e-01 -2.5680553913116455e-01</leafValues></_>
        <_>
          <internalNodes>
            0 -1 299 -1.8065168987959623e-03</internalNodes>
          <leafValues>
            1.4232642948627472e-01 -4.6654033660888672e-01</leafValues></_>
        <_>
          <internalNodes>
            0 -1 202 9.7689090762287378e-04</internalNodes>
          <leafValues>
            -2.8455966711044312e-01 2.2920908033847809e-01</leafValues></_>
        <_>
          <internalNodes>
            0 -1 275 6.4249783754348755e-03</internalNodes>
          <leafValues>
            4.5997817069292068e-02 -6.8628150224685669e-01</leafValues></_>
        <_>
          <internalNodes>
            0 -1 308 -8.7623787112534046e-04</internalNodes>
          <leafValues>
            2.0379200577735901e-01 -2.5939074158668518e-01</leafValues></_>
        <_>
          <internalNodes>
            0 -1 277 -3.0388380400836468e-03</internalNodes>
          <leafValues>
            2.8960028290748596e-01 -2.2114823758602142e-01</leafValues></_>
        <_>
          <internalNodes>
            0 -1 134 -8.9599043130874634e-03</internalNodes>
          <leafValues>
            5.4400205612182617e-01 -9.7321882843971252e-02</leafValues></_>
        <_>
          <internalNodes>
            0 -1 285 -6.3469214364886284e-03</internalNodes>
          <leafValues>
            -5.8729797601699829e-01 9.0179115533828735e-02</leafValues></_>
        <_>
          <internalNodes>
            0 -1 99 7.7979620546102524e-03</internalNodes>
          <leafValues>
            9.8230019211769104e-02 -4.9327000975608826e-01</leafValues></_>
        <_>
          <internalNodes>
            0 -1 152 1.0221891570836306e-03</internalNodes>
          <leafValues>
            -1.5388540923595428e-01 3.4152641892433167e-01</leafValues></_>
        <_>
          <internalNodes>
            0 -1 24 -5.3848922252655029e-03</internalNodes>
          <leafValues>
            7.7848714590072632e-01 -5.9800483286380768e-02</leafValues></_>
        <_>
          <internalNodes>
            0 -1 175 6.0088057070970535e-03</internalNodes>
          <leafValues>
            7.5463272631168365e-02 -8.3137607574462891e-01</leafValues></_>
        <_>
          <internalNodes>
            0 -1 324 2.8912423294968903e-04</internalNodes>
          <leafValues>
            -1.3226506114006042e-01 4.1429603099822998e-01</leafValues></_>
        <_>
          <internalNodes>
            0 -1 390 3.2639435958117247e-03</internalNodes>
          <leafValues>
            -9.6148811280727386e-02 5.9676080942153931e-01</leafValues></_>
        <_>
          <internalNodes>
            0 -1 376 -2.3464577272534370e-02</internalNodes>
          <leafValues>
            -7.7675086259841919e-01 7.4558906257152557e-02</leafValues></_>
        <_>
          <internalNodes>
            0 -1 193 -2.4361088871955872e-02</internalNodes>
          <leafValues>
            1.4595112204551697e-01 -3.3915185928344727e-01</leafValues></_>
        <_>
          <internalNodes>
            0 -1 63 -5.2684691036120057e-04</internalNodes>
          <leafValues>
            2.8448846936225891e-01 -2.0785614848136902e-01</leafValues></_>
        <_>
          <internalNodes>
            0 -1 313 -7.1493024006485939e-04</internalNodes>
          <leafValues>
            -6.6860598325729370e-01 7.7166005969047546e-02</leafValues></_>
        <_>
          <internalNodes>
            0 -1 121 -1.2701228260993958e-03</internalNodes>
          <leafValues>
            -5.7093274593353271e-01 7.4156142771244049e-02</leafValues></_>
        <_>
          <internalNodes>
            0 -1 331 2.0287286024540663e-03</internalNodes>
          <leafValues>
            5.4999370127916336e-02 -7.9599386453628540e-01</leafValues></_>
        <_>
          <internalNodes>
            0 -1 57 -3.7676949054002762e-02</internalNodes>
          <leafValues>
            -6.3244682550430298e-01 6.9111816585063934e-02</leafValues></_>
        <_>
          <internalNodes>
            0 -1 106 5.6826891377568245e-03</internalNodes>
          <leafValues>
            7.5590662658214569e-02 -6.0068166255950928e-01</leafValues></_>
        <_>
          <internalNodes>
            0 -1 37 -1.2032977538183331e-03</internalNodes>
          <leafValues>
            4.5232647657394409e-01 -1.3707275688648224e-01</leafValues></_>
        <_>
          <internalNodes>
            0 -1 148 3.5051250597462058e-04</internalNodes>
          <leafValues>
            -1.6883718967437744e-01 2.9060059785842896e-01</leafValues></_>
        <_>
          <internalNodes>
            0 -1 123 -3.9325632154941559e-02</internalNodes>
          <leafValues>
            8.2899242639541626e-01 -5.5691257119178772e-02</leafValues></_>
        <_>
          <internalNodes>
            0 -1 380 -4.3187732808291912e-03</internalNodes>
          <leafValues>
            -5.8448529243469238e-01 8.9716881513595581e-02</leafValues></_></weakClassifiers></_>
    <!-- stage 13 -->
    <_>
      <maxWeakCount>33</maxWeakCount>
      <stageThreshold>-9.9329477548599243e-01</stageThreshold>
      <weakClassifiers>
        <_>
          <internalNodes>
            0 -1 269 -1.5712158754467964e-02</internalNodes>
          <leafValues>
            5.0791364908218384e-01 -6.4480870962142944e-02</leafValues></_>
        <_>
          <internalNodes>
            0 -1 333 -1.7226645722985268e-03</internalNodes>
          <leafValues>
            2.8782513737678528e-01 -3.0072063207626343e-01</leafValues></_>
        <_>
          <internalNodes>
            0 -1 261 -1.5143118798732758e-02</internalNodes>
          <leafValues>
            -8.0212885141372681e-01 9.2721320688724518e-02</leafValues></_>
        <_>
          <internalNodes>
            0 -1 58 1.6513437032699585e-02</internalNodes>
          <leafValues>
            -3.7268242239952087e-01 1.7137512564659119e-01</leafValues></_>
        <_>
          <internalNodes>
            0 -1 2 -3.9072748273611069e-02</internalNodes>
          <leafValues>
            -6.1952531337738037e-01 1.0171289741992950e-01</leafValues></_>
        <_>
          <internalNodes>
            0 -1 342 -1.4776226598769426e-03</internalNodes>
          <leafValues>
            -6.0520064830780029e-01 9.7021706402301788e-02</leafValues></_>
        <_>
          <internalNodes>
            0 -1 100 6.6869682632386684e-04</internalNodes>
          <leafValues>
            1.6528274118900299e-01 -3.4063732624053955e-01</leafValues></_>
        <_>
          <internalNodes>
            0 -1 322 -1.4981085434556007e-02</internalNodes>
          <leafValues>
            6.5524697303771973e-01 -1.0720258206129074e-01</leafValues></_>
        <_>
          <internalNodes>
            0 -1 245 2.8866383945569396e-04</internalNodes>
          <leafValues>
            1.0186415910720825e-01 -6.1952888965606689e-01</leafValues></_>
        <_>
          <internalNodes>
            0 -1 302 -3.9297835901379585e-03</internalNodes>
          <leafValues>
            -8.3916544914245605e-01 5.8865200728178024e-02</leafValues></_>
        <_>
          <internalNodes>
            0 -1 375 -9.9292094819247723e-04</internalNodes>
          <leafValues>
            3.2468080520629883e-01 -1.6561317443847656e-01</leafValues></_>
        <_>
          <internalNodes>
            0 -1 277 -3.8356166332960129e-03</internalNodes>
          <leafValues>
            3.0887818336486816e-01 -1.7098990082740784e-01</leafValues></_>
        <_>
          <internalNodes>
            0 -1 283 1.1415109038352966e-02</internalNodes>
          <leafValues>
            -1.3435171544551849e-01 4.2005380988121033e-01</leafValues></_>
        <_>
          <internalNodes>
            0 -1 74 -5.0119999796152115e-02</internalNodes>
          <leafValues>
            -6.8636274337768555e-01 8.4881260991096497e-02</leafValues></_>
        <_>
          <internalNodes>
            0 -1 22 -7.0592126576229930e-04</internalNodes>
          <leafValues>
            4.4305062294006348e-01 -1.2511995434761047e-01</leafValues></_>
        <_>
          <internalNodes>
            0 -1 34 1.7555825412273407e-02</internalNodes>
          <leafValues>
            -6.2133509665727615e-02 8.2527273893356323e-01</leafValues></_>
        <_>
          <internalNodes>
            0 -1 405 2.2645946592092514e-03</internalNodes>
          <leafValues>
            7.3352105915546417e-02 -7.6967024803161621e-01</leafValues></_>
        <_>
          <internalNodes>
            0 -1 5 1.1924667283892632e-02</internalNodes>
          <leafValues>
            -3.6416167020797729e-01 1.3604691624641418e-01</leafValues></_>
        <_>
          <internalNodes>
            0 -1 149 -4.2522861622273922e-03</internalNodes>
          <leafValues>
            -2.0872029662132263e-01 2.7341932058334351e-01</leafValues></_>
        <_>
          <internalNodes>
            0 -1 186 1.4875962398946285e-02</internalNodes>
          <leafValues>
            9.9606864154338837e-02 -5.2480649948120117e-01</leafValues></_>
        <_>
          <internalNodes>
            0 -1 412 2.0252540707588196e-03</internalNodes>
          <leafValues>
            -1.3383883237838745e-01 3.9876270294189453e-01</leafValues></_>
        <_>
          <internalNodes>
            0 -1 236 -1.0009894613176584e-03</internalNodes>
          <leafValues>
            2.8184977173805237e-01 -1.8172462284564972e-01</leafValues></_>
        <_>
          <internalNodes>
            0 -1 217 6.6145984455943108e-03</internalNodes>
          <leafValues>
            8.1731952726840973e-02 -6.0769498348236084e-01</leafValues></_>
        <_>
          <internalNodes>
            0 -1 229 1.4785872772336006e-02</internalNodes>
          <leafValues>
            7.2587825357913971e-02 -6.6092306375503540e-01</leafValues></_>
        <_>
          <internalNodes>
            0 -1 233 -7.0215621963143349e-03</internalNodes>
          <leafValues>
            -8.5462474822998047e-01 4.4602788984775543e-02</leafValues></_>
        <_>
          <internalNodes>
            0 -1 384 1.1561430990695953e-02</internalNodes>
          <leafValues>
            5.4091110825538635e-02 -7.6508134603500366e-01</leafValues></_>
        <_>
          <internalNodes>
            0 -1 177 -1.7107257619500160e-02</internalNodes>
          <leafValues>
            -7.5967097282409668e-01 5.6361116468906403e-02</leafValues></_>
        <_>
          <internalNodes>
            0 -1 255 -2.5101297069340944e-03</internalNodes>
          <leafValues>
            -8.0554938316345215e-01 5.4305810481309891e-02</leafValues></_>
        <_>
          <internalNodes>
            0 -1 429 -1.0539116337895393e-03</internalNodes>
          <leafValues>
            2.4567615985870361e-01 -2.0779301226139069e-01</leafValues></_>
        <_>
          <internalNodes>
            0 -1 420 -7.8852748265489936e-04</internalNodes>
          <leafValues>
            3.5090759396553040e-01 -1.4123599231243134e-01</leafValues></_>
        <_>
          <internalNodes>
            0 -1 416 6.3128850888460875e-04</internalNodes>
          <leafValues>
            -1.9165031611919403e-01 2.7482703328132629e-01</leafValues></_>
        <_>
          <internalNodes>
            0 -1 20 -6.1900792643427849e-03</internalNodes>
          <leafValues>
            4.4471684098243713e-01 -1.0806810110807419e-01</leafValues></_>
        <_>
          <internalNodes>
            0 -1 377 2.4124246556311846e-03</internalNodes>
          <leafValues>
            -1.2734301388263702e-01 3.7921440601348877e-01</leafValues></_></weakClassifiers></_>
    <!-- stage 14 -->
    <_>
      <maxWeakCount>33</maxWeakCount>
      <stageThreshold>-8.6423707008361816e-01</stageThreshold>
      <weakClassifiers>
        <_>
          <internalNodes>
            0 -1 363 1.2622051872313023e-04</internalNodes>
          <leafValues>
            -1.1951219290494919e-01 5.0366973876953125e-01</leafValues></_>
        <_>
          <internalNodes>
            0 -1 70 3.3586411736905575e-03</internalNodes>
          <leafValues>
            -4.3870341777801514e-01 2.2038555145263672e-01</leafValues></_>
        <_>
          <internalNodes>
            0 -1 143 3.9240956306457520e-02</internalNodes>
          <leafValues>
            -2.1380539238452911e-01 4.1958519816398621e-01</leafValues></_>
        <_>
          <internalNodes>
            0 -1 354 2.9009114950895309e-04</internalNodes>
          <leafValues>
            -1.8610426783561707e-01 3.0933570861816406e-01</leafValues></_>
        <_>
          <internalNodes>
            0 -1 32 -2.6605412364006042e-02</internalNodes>
          <leafValues>
            2.5983574986457825e-01 -2.0533828437328339e-01</leafValues></_>
        <_>
          <internalNodes>
            0 -1 367 1.2744133709929883e-04</internalNodes>
          <leafValues>
            -3.0348035693168640e-01 1.5336135029792786e-01</leafValues></_>
        <_>
          <internalNodes>
            0 -1 249 -6.2649101018905640e-03</internalNodes>
          <leafValues>
            -8.2558572292327881e-01 5.9560008347034454e-02</leafValues></_>
        <_>
          <internalNodes>
            0 -1 62 -3.4281529951840639e-04</internalNodes>
          <leafValues>
            2.8635782003402710e-01 -1.8350720405578613e-01</leafValues></_>
        <_>
          <internalNodes>
            0 -1 16 -7.7196665108203888e-02</internalNodes>
          <leafValues>
            -6.3983273506164551e-01 7.7056638896465302e-02</leafValues></_>
        <_>
          <internalNodes>
            0 -1 107 -3.1075475271791220e-04</internalNodes>
          <leafValues>
            2.0304150879383087e-01 -2.5438955426216125e-01</leafValues></_>
        <_>
          <internalNodes>
            0 -1 349 6.6562870051711798e-04</internalNodes>
          <leafValues>
            7.0298023521900177e-02 -6.0860794782638550e-01</leafValues></_>
        <_>
          <internalNodes>
            0 -1 299 -8.6176600307226181e-03</internalNodes>
          <leafValues>
            -6.9960540533065796e-01 6.2426771968603134e-02</leafValues></_>
        <_>
          <internalNodes>
            0 -1 430 1.8625225638970733e-03</internalNodes>
          <leafValues>
            -2.6889610290527344e-01 1.7556202411651611e-01</leafValues></_>
        <_>
          <internalNodes>
            0 -1 240 9.4888271996751428e-04</internalNodes>
          <leafValues>
            8.7151132524013519e-02 -6.3967639207839966e-01</leafValues></_>
        <_>
          <internalNodes>
            0 -1 387 3.2767592929303646e-03</internalNodes>
          <leafValues>
            -1.2940499186515808e-01 4.2865732312202454e-01</leafValues></_>
        <_>
          <internalNodes>
            0 -1 393 -7.0012622745707631e-04</internalNodes>
          <leafValues>
            2.8951114416122437e-01 -1.8313737213611603e-01</leafValues></_>
        <_>
          <internalNodes>
            0 -1 30 7.0205042138695717e-03</internalNodes>
          <leafValues>
            -4.0132042765617371e-01 1.3085284829139709e-01</leafValues></_>
        <_>
          <internalNodes>
            0 -1 23 -2.7746222913265228e-03</internalNodes>
          <leafValues>
            5.9546095132827759e-01 -9.0491905808448792e-02</leafValues></_>
        <_>
          <internalNodes>
            0 -1 144 -8.0879684537649155e-03</internalNodes>
          <leafValues>
            7.3833972215652466e-01 -5.2902646362781525e-02</leafValues></_>
        <_>
          <internalNodes>
            0 -1 234 5.9396810829639435e-03</internalNodes>
          <leafValues>
            1.2692178785800934e-01 -4.8807433247566223e-01</leafValues></_>
        <_>
          <internalNodes>
            0 -1 126 -2.6955176144838333e-03</internalNodes>
          <leafValues>
            2.8148117661476135e-01 -1.9527059793472290e-01</leafValues></_>
        <_>
          <internalNodes>
            0 -1 411 -2.1465288009494543e-03</internalNodes>
          <leafValues>
            -7.2398883104324341e-01 7.0289053022861481e-02</leafValues></_>
        <_>
          <internalNodes>
            0 -1 203 -5.2938628941774368e-03</internalNodes>
          <leafValues>
            -7.9329562187194824e-01 5.7207245379686356e-02</leafValues></_>
        <_>
          <internalNodes>
            0 -1 159 -7.0203403010964394e-03</internalNodes>
          <leafValues>
            3.7932521104812622e-01 -1.5238988399505615e-01</leafValues></_>
        <_>
          <internalNodes>
            0 -1 176 4.3609648128040135e-04</internalNodes>
          <leafValues>
            -1.7289219796657562e-01 2.6400950551033020e-01</leafValues></_>
        <_>
          <internalNodes>
            0 -1 432 6.0829939320683479e-03</internalNodes>
          <leafValues>
            7.3503106832504272e-02 -6.9984853267669678e-01</leafValues></_>
        <_>
          <internalNodes>
            0 -1 118 -5.6410040706396103e-03</internalNodes>
          <leafValues>
            -2.9106640815734863e-01 1.7061005532741547e-01</leafValues></_>
        <_>
          <internalNodes>
            0 -1 187 3.0512554803863168e-04</internalNodes>
          <leafValues>
            -4.5925110578536987e-01 1.1314272135496140e-01</leafValues></_>
        <_>
          <internalNodes>
            0 -1 84 -1.5015431679785252e-02</internalNodes>
          <leafValues>
            -7.3694032430648804e-01 6.1695959419012070e-02</leafValues></_>
        <_>
          <internalNodes>
            0 -1 52 -8.3177909255027771e-04</internalNodes>
          <leafValues>
            -3.3090713620185852e-01 1.3482335209846497e-01</leafValues></_>
        <_>
          <internalNodes>
            0 -1 21 1.5196530148386955e-04</internalNodes>
          <leafValues>
            -2.1079972386360168e-01 2.3647375404834747e-01</leafValues></_>
        <_>
          <internalNodes>
            0 -1 42 -6.8486332893371582e-02</internalNodes>
          <leafValues>
            -4.7260782122612000e-01 9.8411731421947479e-02</leafValues></_>
        <_>
          <internalNodes>
            0 -1 164 -6.4398460090160370e-02</internalNodes>
          <leafValues>
            -5.1245450973510742e-01 8.9788585901260376e-02</leafValues></_></weakClassifiers></_>
    <!-- stage 15 -->
    <_>
      <maxWeakCount>35</maxWeakCount>
      <stageThreshold>-9.8814171552658081e-01</stageThreshold>
      <weakClassifiers>
        <_>
          <internalNodes>
            0 -1 178 6.0193315148353577e-02</internalNodes>
          <leafValues>
            -4.7957371920347214e-02 5.6243330240249634e-01</leafValues></_>
        <_>
          <internalNodes>
            0 -1 81 -2.6423675008118153e-03</internalNodes>
          <leafValues>
            3.7534871697425842e-01 -1.9946871697902679e-01</leafValues></_>
        <_>
          <internalNodes>
            0 -1 362 -1.9560672342777252e-02</internalNodes>
          <leafValues>
            4.6221458911895752e-01 -1.7805893719196320e-01</leafValues></_>
        <_>
          <internalNodes>
            0 -1 171 -4.6282587572932243e-03</internalNodes>
          <leafValues>
            2.3800085484981537e-01 -2.8062072396278381e-01</leafValues></_>
        <_>
          <internalNodes>
            0 -1 254 -9.3961998572922312e-06</internalNodes>
          <leafValues>
            2.1256978809833527e-01 -3.4732514619827271e-01</leafValues></_>
        <_>
          <internalNodes>
            0 -1 119 -8.2334652543067932e-03</internalNodes>
          <leafValues>
            6.2570297718048096e-01 -1.1017722636461258e-01</leafValues></_>
        <_>
          <internalNodes>
            0 -1 34 1.5658404678106308e-02</internalNodes>
          <leafValues>
            -6.1096221208572388e-02 8.4101688861846924e-01</leafValues></_>
        <_>
          <internalNodes>
            0 -1 340 -8.6509844550164416e-06</internalNodes>
          <leafValues>
            1.1502049118280411e-01 -5.9406876564025879e-01</leafValues></_>
        <_>
          <internalNodes>
            0 -1 25 1.3742806622758508e-03</internalNodes>
          <leafValues>
            -2.9367470741271973e-01 1.9231212139129639e-01</leafValues></_>
        <_>
          <internalNodes>
            0 -1 190 1.6214104834944010e-03</internalNodes>
          <leafValues>
            7.7734328806400299e-02 -7.4971127510070801e-01</leafValues></_>
        <_>
          <internalNodes>
            0 -1 91 -3.1505094375461340e-04</internalNodes>
          <leafValues>
            2.2937825322151184e-01 -2.1158172190189362e-01</leafValues></_>
        <_>
          <internalNodes>
            0 -1 61 -1.7981376498937607e-02</internalNodes>
          <leafValues>
            -6.5932703018188477e-01 7.8642211854457855e-02</leafValues></_>
        <_>
          <internalNodes>
            0 -1 162 -3.4525156952440739e-03</internalNodes>
          <leafValues>
            4.3962639570236206e-01 -1.2271408736705780e-01</leafValues></_>
        <_>
          <internalNodes>
            0 -1 136 7.8763402998447418e-03</internalNodes>
          <leafValues>
            7.0410102605819702e-02 -7.7463823556900024e-01</leafValues></_>
        <_>
          <internalNodes>
            0 -1 415 2.7612887322902679e-02</internalNodes>
          <leafValues>
            4.8532862216234207e-02 -7.7576899528503418e-01</leafValues></_>
        <_>
          <internalNodes>
            0 -1 38 -2.4800149258226156e-03</internalNodes>
          <leafValues>
            6.1976283788681030e-01 -8.4173105657100677e-02</leafValues></_>
        <_>
          <internalNodes>
            0 -1 315 -1.0759683791548014e-03</internalNodes>
          <leafValues>
            -5.6789290904998779e-01 9.3158289790153503e-02</leafValues></_>
        <_>
          <internalNodes>
            0 -1 361 1.6930876299738884e-03</internalNodes>
          <leafValues>
            -2.7855592966079712e-01 1.6110791265964508e-01</leafValues></_>
        <_>
          <internalNodes>
            0 -1 199 7.9113489482551813e-04</internalNodes>
          <leafValues>
            5.3385905921459198e-02 -7.5906717777252197e-01</leafValues></_>
        <_>
          <internalNodes>
            0 -1 94 7.8060533851385117e-03</internalNodes>
          <leafValues>
            -1.9322790205478668e-01 2.5132897496223450e-01</leafValues></_>
        <_>
          <internalNodes>
            0 -1 200 -2.0043695985805243e-04</internalNodes>
          <leafValues>
            2.4915663897991180e-01 -2.0336611568927765e-01</leafValues></_>
        <_>
          <internalNodes>
            0 -1 110 -1.7451218445785344e-04</internalNodes>
          <leafValues>
            2.3219951987266541e-01 -2.0593503117561340e-01</leafValues></_>
        <_>
          <internalNodes>
            0 -1 335 5.3997170180082321e-03</internalNodes>
          <leafValues>
            5.9153318405151367e-02 -8.4867453575134277e-01</leafValues></_>
        <_>
          <internalNodes>
            0 -1 321 -1.6391355544328690e-02</internalNodes>
          <leafValues>
            9.2551356554031372e-01 -6.6846802830696106e-02</leafValues></_>
        <_>
          <internalNodes>
            0 -1 245 3.4717761445790529e-04</internalNodes>
          <leafValues>
            9.7876712679862976e-02 -6.0021257400512695e-01</leafValues></_>
        <_>
          <internalNodes>
            0 -1 89 -5.3631328046321869e-04</internalNodes>
          <leafValues>
            2.6872509717941284e-01 -1.8176047503948212e-01</leafValues></_>
        <_>
          <internalNodes>
            0 -1 431 6.2364386394619942e-04</internalNodes>
          <leafValues>
            -1.6475804150104523e-01 2.7389213442802429e-01</leafValues></_>
        <_>
          <internalNodes>
            0 -1 372 -4.1831302223727107e-04</internalNodes>
          <leafValues>
            2.0477327704429626e-01 -2.2461146116256714e-01</leafValues></_>
        <_>
          <internalNodes>
            0 -1 317 -8.7915314361453056e-03</internalNodes>
          <leafValues>
            -4.6694901585578918e-01 1.0363011807203293e-01</leafValues></_>
        <_>
          <internalNodes>
            0 -1 97 -2.9029548168182373e-03</internalNodes>
          <leafValues>
            4.6415627002716064e-01 -1.1172009259462357e-01</leafValues></_>
        <_>
          <internalNodes>
            0 -1 170 -6.7105226218700409e-02</internalNodes>
          <leafValues>
            -6.7330443859100342e-01 7.2230651974678040e-02</leafValues></_>
        <_>
          <internalNodes>
            0 -1 246 -1.0947971604764462e-03</internalNodes>
          <leafValues>
            2.0404608547687531e-01 -2.3491518199443817e-01</leafValues></_>
        <_>
          <internalNodes>
            0 -1 12 -2.0277783274650574e-01</internalNodes>
          <leafValues>
            4.8019817471504211e-01 -1.0385426878929138e-01</leafValues></_>
        <_>
          <internalNodes>
            0 -1 145 -3.6013606004416943e-03</internalNodes>
          <leafValues>
            -4.4959315657615662e-01 1.1012713611125946e-01</leafValues></_>
        <_>
          <internalNodes>
            0 -1 39 1.1978388065472245e-03</internalNodes>
          <leafValues>
            1.7654252052307129e-01 -2.9568591713905334e-01</leafValues></_></weakClassifiers></_>
    <!-- stage 16 -->
    <_>
      <maxWeakCount>31</maxWeakCount>
      <stageThreshold>-9.9108844995498657e-01</stageThreshold>
      <weakClassifiers>
        <_>
          <internalNodes>
            0 -1 180 5.9686932712793350e-02</internalNodes>
          <leafValues>
            -1.0652353614568710e-01 6.3107883930206299e-01</leafValues></_>
        <_>
          <internalNodes>
            0 -1 133 1.8762150779366493e-02</internalNodes>
          <leafValues>
            -2.4493767321109772e-01 3.2988435029983521e-01</leafValues></_>
        <_>
          <internalNodes>
            0 -1 332 -3.3002343843691051e-04</internalNodes>
          <leafValues>
            -5.2131491899490356e-01 1.2284725904464722e-01</leafValues></_>
        <_>
          <internalNodes>
            0 -1 240 2.7362006949260831e-04</internalNodes>
          <leafValues>
            1.0873266309499741e-01 -4.8263761401176453e-01</leafValues></_>
        <_>
          <internalNodes>
            0 -1 312 3.0422939744312316e-05</internalNodes>
          <leafValues>
            1.6459608078002930e-01 -3.6022883653640747e-01</leafValues></_>
        <_>
          <internalNodes>
            0 -1 6 -2.9914204496890306e-03</internalNodes>
          <leafValues>
            -3.1754681468009949e-01 1.9350777566432953e-01</leafValues></_>
        <_>
          <internalNodes>
            0 -1 316 -2.6139882393181324e-03</internalNodes>
          <leafValues>
            4.0832367539405823e-01 -1.3043656945228577e-01</leafValues></_>
        <_>
          <internalNodes>
            0 -1 440 4.6087789814919233e-04</internalNodes>
          <leafValues>
            -1.5547695755958557e-01 3.4856027364730835e-01</leafValues></_>
        <_>
          <internalNodes>
            0 -1 225 -2.3787752725183964e-03</internalNodes>
          <leafValues>
            -8.6029577255249023e-01 4.4562973082065582e-02</leafValues></_>
        <_>
          <internalNodes>
            0 -1 366 -2.9837479814887047e-04</internalNodes>
          <leafValues>
            1.5708820521831512e-01 -3.0688282847404480e-01</leafValues></_>
        <_>
          <internalNodes>
            0 -1 122 -1.6457301098853350e-03</internalNodes>
          <leafValues>
            -6.1839383840560913e-01 7.9064123332500458e-02</leafValues></_>
        <_>
          <internalNodes>
            0 -1 192 -4.0993820875883102e-03</internalNodes>
          <leafValues>
            4.9347247928380966e-02 -8.2196807861328125e-01</leafValues></_>
        <_>
          <internalNodes>
            0 -1 406 -4.6536931768059731e-03</internalNodes>
          <leafValues>
            -6.1043906211853027e-01 6.9245472550392151e-02</leafValues></_>
        <_>
          <internalNodes>
            0 -1 391 -6.8635363131761551e-03</internalNodes>
          <leafValues>
            4.7688391804695129e-01 -1.1583974212408066e-01</leafValues></_>
        <_>
          <internalNodes>
            0 -1 358 8.2814702764153481e-03</internalNodes>
          <leafValues>
            -6.5718889236450195e-02 8.5405969619750977e-01</leafValues></_>
        <_>
          <internalNodes>
            0 -1 319 2.5021960027515888e-04</internalNodes>
          <leafValues>
            -1.3801343739032745e-01 4.0029838681221008e-01</leafValues></_>
        <_>
          <internalNodes>
            0 -1 311 -8.3024823106825352e-04</internalNodes>
          <leafValues>
            -5.3081655502319336e-01 1.0402224212884903e-01</leafValues></_>
        <_>
          <internalNodes>
            0 -1 231 -5.5224830284714699e-03</internalNodes>
          <leafValues>
            2.2399005293846130e-01 -2.1448495984077454e-01</leafValues></_>
        <_>
          <internalNodes>
            0 -1 221 7.9511739313602448e-03</internalNodes>
          <leafValues>
            -1.7687682807445526e-01 3.5871154069900513e-01</leafValues></_>
        <_>
          <internalNodes>
            0 -1 232 8.3672590553760529e-03</internalNodes>
          <leafValues>
            6.7683219909667969e-02 -8.6107343435287476e-01</leafValues></_>
        <_>
          <internalNodes>
            0 -1 96 -7.6788347214460373e-03</internalNodes>
          <leafValues>
            -8.3444637060165405e-01 4.5934908092021942e-02</leafValues></_>
        <_>
          <internalNodes>
            0 -1 174 -2.9795346781611443e-03</internalNodes>
          <leafValues>
            -5.0785654783248901e-01 8.1450819969177246e-02</leafValues></_>
        <_>
          <internalNodes>
            0 -1 184 2.4746205657720566e-02</internalNodes>
          <leafValues>
            7.3033861815929413e-02 -6.1619013547897339e-01</leafValues></_>
        <_>
          <internalNodes>
            0 -1 279 -2.5034446734935045e-03</internalNodes>
          <leafValues>
            1.5945617854595184e-01 -2.9254859685897827e-01</leafValues></_>
        <_>
          <internalNodes>
            0 -1 156 -1.0914549231529236e-02</internalNodes>
          <leafValues>
            3.8684985041618347e-01 -1.3317240774631500e-01</leafValues></_>
        <_>
          <internalNodes>
            0 -1 46 -1.6140801832079887e-02</internalNodes>
          <leafValues>
            -7.4200463294982910e-01 6.3286677002906799e-02</leafValues></_>
        <_>
          <internalNodes>
            0 -1 65 -2.5975558673962951e-04</internalNodes>
          <leafValues>
            2.3935526609420776e-01 -1.8675073981285095e-01</leafValues></_>
        <_>
          <internalNodes>
            0 -1 310 -7.8623462468385696e-04</internalNodes>
          <leafValues>
            1.6550125181674957e-01 -2.7168563008308411e-01</leafValues></_>
        <_>
          <internalNodes>
            0 -1 381 -9.2129334807395935e-03</internalNodes>
          <leafValues>
            -5.8365887403488159e-01 7.7629707753658295e-02</leafValues></_>
        <_>
          <internalNodes>
            0 -1 392 7.4208099395036697e-03</internalNodes>
          <leafValues>
            8.2016229629516602e-02 -5.4666870832443237e-01</leafValues></_>
        <_>
          <internalNodes>
            0 -1 423 -1.4941530302166939e-02</internalNodes>
          <leafValues>
            -8.0505716800689697e-01 5.3907122462987900e-02</leafValues></_></weakClassifiers></_>
    <!-- stage 17 -->
    <_>
      <maxWeakCount>27</maxWeakCount>
      <stageThreshold>-8.2190656661987305e-01</stageThreshold>
      <weakClassifiers>
        <_>
          <internalNodes>
            0 -1 153 1.6894869506359100e-02</internalNodes>
          <leafValues>
            -2.2591361403465271e-01 4.7372812032699585e-01</leafValues></_>
        <_>
          <internalNodes>
            0 -1 400 1.6659194603562355e-02</internalNodes>
          <leafValues>
            -1.0415475815534592e-01 6.1126345396041870e-01</leafValues></_>
        <_>
          <internalNodes>
            0 -1 85 -2.6205612812191248e-04</internalNodes>
          <leafValues>
            2.6413100957870483e-01 -2.7157056331634521e-01</leafValues></_>
        <_>
          <internalNodes>
            0 -1 388 4.9304694402962923e-04</internalNodes>
          <leafValues>
            -3.0958357453346252e-01 2.2314925491809845e-01</leafValues></_>
        <_>
          <internalNodes>
            0 -1 1 -1.7144761979579926e-02</internalNodes>
          <leafValues>
            -3.0634528398513794e-01 2.3348775506019592e-01</leafValues></_>
        <_>
          <internalNodes>
            0 -1 293 -5.3006486268714070e-04</internalNodes>
          <leafValues>
            2.5487992167472839e-01 -2.6699504256248474e-01</leafValues></_>
        <_>
          <internalNodes>
            0 -1 218 2.3750700056552887e-02</internalNodes>
          <leafValues>
            -1.0955291986465454e-01 4.9662217497825623e-01</leafValues></_>
        <_>
          <internalNodes>
            0 -1 278 -2.0382793154567480e-03</internalNodes>
          <leafValues>
            4.2489871382713318e-01 -1.5012882649898529e-01</leafValues></_>
        <_>
          <internalNodes>
            0 -1 355 1.2142691412009299e-04</internalNodes>
          <leafValues>
            -2.1938127279281616e-01 2.8495866060256958e-01</leafValues></_>
        <_>
          <internalNodes>
            0 -1 353 -2.8752582147717476e-03</internalNodes>
          <leafValues>
            2.9470849037170410e-01 -2.2446510195732117e-01</leafValues></_>
        <_>
          <internalNodes>
            0 -1 266 8.8504888117313385e-03</internalNodes>
          <leafValues>
            8.6459487676620483e-02 -6.9866210222244263e-01</leafValues></_>
        <_>
          <internalNodes>
            0 -1 309 5.4220727179199457e-04</internalNodes>
          <leafValues>
            6.7199505865573883e-02 -7.4761974811553955e-01</leafValues></_>
        <_>
          <internalNodes>
            0 -1 161 1.2783189304172993e-03</internalNodes>
          <leafValues>
            -1.8716695904731750e-01 3.0809679627418518e-01</leafValues></_>
        <_>
          <internalNodes>
            0 -1 189 1.2394667137414217e-03</internalNodes>
          <leafValues>
            7.9223476350307465e-02 -7.1472048759460449e-01</leafValues></_>
        <_>
          <internalNodes>
            0 -1 403 1.6497145406901836e-03</internalNodes>
          <leafValues>
            -1.4115676283836365e-01 4.5360237360000610e-01</leafValues></_>
        <_>
          <internalNodes>
            0 -1 260 -3.5178881138563156e-02</internalNodes>
          <leafValues>
            -5.6074953079223633e-01 1.0416747629642487e-01</leafValues></_>
        <_>
          <internalNodes>
            0 -1 244 7.9481123248115182e-04</internalNodes>
          <leafValues>
            9.3562312424182892e-02 -5.2580362558364868e-01</leafValues></_>
        <_>
          <internalNodes>
            0 -1 222 -2.5496841408312321e-03</internalNodes>
          <leafValues>
            6.0217969119548798e-02 -7.9439270496368408e-01</leafValues></_>
        <_>
          <internalNodes>
            0 -1 330 -2.6041809469461441e-02</internalNodes>
          <leafValues>
            -4.5821654796600342e-01 1.1873278021812439e-01</leafValues></_>
        <_>
          <internalNodes>
            0 -1 124 1.0029841359937564e-04</internalNodes>
          <leafValues>
            -5.3967958688735962e-01 1.0036753118038177e-01</leafValues></_>
        <_>
          <internalNodes>
            0 -1 146 2.6729906676337123e-04</internalNodes>
          <leafValues>
            -1.9927649199962616e-01 2.5443458557128906e-01</leafValues></_>
        <_>
          <internalNodes>
            0 -1 404 -1.6296334797516465e-03</internalNodes>
          <leafValues>
            2.8903886675834656e-01 -1.8327400088310242e-01</leafValues></_>
        <_>
          <internalNodes>
            0 -1 215 3.4202814567834139e-03</internalNodes>
          <leafValues>
            7.5115963816642761e-02 -7.1500498056411743e-01</leafValues></_>
        <_>
          <internalNodes>
            0 -1 56 8.8425822556018829e-02</internalNodes>
          <leafValues>
            5.9022620320320129e-02 -7.4008423089981079e-01</leafValues></_>
        <_>
          <internalNodes>
            0 -1 419 -5.6464166846126318e-04</internalNodes>
          <leafValues>
            3.3562934398651123e-01 -1.5026661753654480e-01</leafValues></_>
        <_>
          <internalNodes>
            0 -1 165 3.6599390208721161e-02</internalNodes>
          <leafValues>
            7.9766012728214264e-02 -6.5686815977096558e-01</leafValues></_>
        <_>
          <internalNodes>
            0 -1 43 9.2303669080138206e-03</internalNodes>
          <leafValues>
            6.8092256784439087e-02 -6.5204650163650513e-01</leafValues></_></weakClassifiers></_>
    <!-- stage 18 -->
    <_>
      <maxWeakCount>34</maxWeakCount>
      <stageThreshold>-8.9624059200286865e-01</stageThreshold>
      <weakClassifiers>
        <_>
          <internalNodes>
            0 -1 155 5.8416258543729782e-03</internalNodes>
          <leafValues>
            5.1246538758277893e-02 5.9511566162109375e-01</leafValues></_>
        <_>
          <internalNodes>
            0 -1 68 8.6753703653812408e-03</internalNodes>
          <leafValues>
            -3.0902272462844849e-01 2.2301833331584930e-01</leafValues></_>
        <_>
          <internalNodes>
            0 -1 241 -1.2353810016065836e-03</internalNodes>
          <leafValues>
            1.5278097987174988e-01 -4.3501943349838257e-01</leafValues></_>
        <_>
          <internalNodes>
            0 -1 268 -4.9464348703622818e-03</internalNodes>
          <leafValues>
            3.1421768665313721e-01 -2.2253873944282532e-01</leafValues></_>
        <_>
          <internalNodes>
            0 -1 269 -1.5653820708394051e-02</internalNodes>
          <leafValues>
            1.7278449237346649e-01 -3.9579662680625916e-01</leafValues></_>
        <_>
          <internalNodes>
            0 -1 45 -6.7534092813730240e-03</internalNodes>
          <leafValues>
            -5.3934937715530396e-01 9.1445825994014740e-02</leafValues></_>
        <_>
          <internalNodes>
            0 -1 439 1.5378798707388341e-04</internalNodes>
          <leafValues>
            -1.7460189759731293e-01 3.1529703736305237e-01</leafValues></_>
        <_>
          <internalNodes>
            0 -1 210 1.0437944903969765e-02</internalNodes>
          <leafValues>
            -7.0753648877143860e-02 6.7335116863250732e-01</leafValues></_>
        <_>
          <internalNodes>
            0 -1 86 -2.7293345192447305e-04</internalNodes>
          <leafValues>
            2.7813270688056946e-01 -2.1699471771717072e-01</leafValues></_>
        <_>
          <internalNodes>
            0 -1 55 8.0205909907817841e-03</internalNodes>
          <leafValues>
            -2.4093823134899139e-01 2.6142513751983643e-01</leafValues></_>
        <_>
          <internalNodes>
            0 -1 401 1.6273483633995056e-02</internalNodes>
          <leafValues>
            1.0300318151712418e-01 -5.8830434083938599e-01</leafValues></_>
        <_>
          <internalNodes>
            0 -1 329 -2.1342815831303596e-02</internalNodes>
          <leafValues>
            -5.9052467346191406e-01 1.0203021764755249e-01</leafValues></_>
        <_>
          <internalNodes>
            0 -1 36 -2.4317116476595402e-03</internalNodes>
          <leafValues>
            5.2558612823486328e-01 -1.0878849774599075e-01</leafValues></_>
        <_>
          <internalNodes>
            0 -1 169 -1.6698131337761879e-02</internalNodes>
          <leafValues>
            1.1627062410116196e-01 -4.1868099570274353e-01</leafValues></_>
        <_>
          <internalNodes>
            0 -1 104 -7.1055658161640167e-02</internalNodes>
          <leafValues>
            -6.1180877685546875e-01 8.0341696739196777e-02</leafValues></_>
        <_>
          <internalNodes>
            0 -1 318 3.9692170685157180e-04</internalNodes>
          <leafValues>
            -1.8804647028446198e-01 3.0060556530952454e-01</leafValues></_>
        <_>
          <internalNodes>
            0 -1 370 -2.2135199978947639e-03</internalNodes>
          <leafValues>
            -8.4480434656143188e-01 6.2026161700487137e-02</leafValues></_>
        <_>
          <internalNodes>
            0 -1 120 -4.6586832031607628e-03</internalNodes>
          <leafValues>
            5.0857579708099365e-01 -1.0785314440727234e-01</leafValues></_>
        <_>
          <internalNodes>
            0 -1 182 -2.2771332412958145e-02</internalNodes>
          <leafValues>
            9.4131428003311157e-01 -4.7376483678817749e-02</leafValues></_>
        <_>
          <internalNodes>
            0 -1 395 6.5196515060961246e-04</internalNodes>
          <leafValues>
            -1.5484341979026794e-01 2.7681574225425720e-01</leafValues></_>
        <_>
          <internalNodes>
            0 -1 188 -3.3187512308359146e-03</internalNodes>
          <leafValues>
            2.8154098987579346e-01 -1.6946123540401459e-01</leafValues></_>
        <_>
          <internalNodes>
            0 -1 373 -1.8424210138618946e-03</internalNodes>
          <leafValues>
            -6.9552487134933472e-01 6.3740216195583344e-02</leafValues></_>
        <_>
          <internalNodes>
            0 -1 426 -3.0117732239887118e-04</internalNodes>
          <leafValues>
            1.6768936812877655e-01 -2.6485958695411682e-01</leafValues></_>
        <_>
          <internalNodes>
            0 -1 407 1.2163260253146291e-03</internalNodes>
          <leafValues>
            -1.5916477143764496e-01 2.9523545503616333e-01</leafValues></_>
        <_>
          <internalNodes>
            0 -1 115 1.4297501184046268e-02</internalNodes>
          <leafValues>
            7.1938812732696533e-02 -6.0002642869949341e-01</leafValues></_>
        <_>
          <internalNodes>
            0 -1 369 -7.8514628112316132e-03</internalNodes>
          <leafValues>
            2.6903933286666870e-01 -1.8139639496803284e-01</leafValues></_>
        <_>
          <internalNodes>
            0 -1 160 9.3346852809190750e-03</internalNodes>
          <leafValues>
            -1.2982170283794403e-01 3.8396278023719788e-01</leafValues></_>
        <_>
          <internalNodes>
            0 -1 205 -2.7719843201339245e-03</internalNodes>
          <leafValues>
            -6.3569521903991699e-01 7.4360631406307220e-02</leafValues></_>
        <_>
          <internalNodes>
            0 -1 224 1.2060265988111496e-02</internalNodes>
          <leafValues>
            -1.5433286130428314e-01 3.0992415547370911e-01</leafValues></_>
        <_>
          <internalNodes>
            0 -1 270 -3.9951698854565620e-03</internalNodes>
          <leafValues>
            4.4118702411651611e-01 -1.8172086775302887e-01</leafValues></_>
        <_>
          <internalNodes>
            0 -1 336 5.9782946482300758e-04</internalNodes>
          <leafValues>
            -2.5383153557777405e-01 2.4458025395870209e-01</leafValues></_>
        <_>
          <internalNodes>
            0 -1 360 2.3422060534358025e-02</internalNodes>
          <leafValues>
            6.5175041556358337e-02 -7.5103908777236938e-01</leafValues></_>
        <_>
          <internalNodes>
            0 -1 294 -3.3581214956939220e-03</internalNodes>
          <leafValues>
            -6.4160281419754028e-01 6.4227424561977386e-02</leafValues></_>
        <_>
          <internalNodes>
            0 -1 13 7.4496562592685223e-03</internalNodes>
          <leafValues>
            -6.7228995263576508e-02 8.3477056026458740e-01</leafValues></_></weakClassifiers></_>
    <!-- stage 19 -->
    <_>
      <maxWeakCount>28</maxWeakCount>
      <stageThreshold>-8.2322436571121216e-01</stageThreshold>
      <weakClassifiers>
        <_>
          <internalNodes>
            0 -1 132 3.6576170474290848e-02</internalNodes>
          <leafValues>
            4.1084634140133858e-03 5.5804824829101562e-01</leafValues></_>
        <_>
          <internalNodes>
            0 -1 194 -4.5434857020154595e-04</internalNodes>
          <leafValues>
            3.2845982909202576e-01 -1.9400368630886078e-01</leafValues></_>
        <_>
          <internalNodes>
            0 -1 147 2.8092944994568825e-03</internalNodes>
          <leafValues>
            -2.3668117821216583e-01 2.8705975413322449e-01</leafValues></_>
        <_>
          <internalNodes>
            0 -1 10 1.7274055629968643e-02</internalNodes>
          <leafValues>
            -2.8905630111694336e-01 2.2605508565902710e-01</leafValues></_>
        <_>
          <internalNodes>
            0 -1 26 -3.3578115981072187e-03</internalNodes>
          <leafValues>
            5.7372641563415527e-01 -1.4048646390438080e-01</leafValues></_>
        <_>
          <internalNodes>
            0 -1 59 2.4237742647528648e-02</internalNodes>
          <leafValues>
            1.2544068694114685e-01 -6.6203218698501587e-01</leafValues></_>
        <_>
          <internalNodes>
            0 -1 413 -6.3630053773522377e-04</internalNodes>
          <leafValues>
            3.5512837767601013e-01 -1.6939722001552582e-01</leafValues></_>
        <_>
          <internalNodes>
            0 -1 40 8.0633938312530518e-02</internalNodes>
          <leafValues>
            7.0052325725555420e-02 -6.3162636756896973e-01</leafValues></_>
        <_>
          <internalNodes>
            0 -1 379 1.3623203267343342e-04</internalNodes>
          <leafValues>
            -2.7553704380989075e-01 1.9520810246467590e-01</leafValues></_>
        <_>
          <internalNodes>
            0 -1 378 3.9933668449521065e-03</internalNodes>
          <leafValues>
            -1.5593221783638000e-01 3.6473223567008972e-01</leafValues></_>
        <_>
          <internalNodes>
            0 -1 441 -2.4224692024290562e-03</internalNodes>
          <leafValues>
            7.4286377429962158e-01 -7.6036103069782257e-02</leafValues></_>
        <_>
          <internalNodes>
            0 -1 306 2.2238875681068748e-04</internalNodes>
          <leafValues>
            1.3904410600662231e-01 -4.3192777037620544e-01</leafValues></_>
        <_>
          <internalNodes>
            0 -1 283 1.1157963424921036e-02</internalNodes>
          <leafValues>
            -1.4021462202072144e-01 4.1450461745262146e-01</leafValues></_>
        <_>
          <internalNodes>
            0 -1 226 -2.8464666102081537e-03</internalNodes>
          <leafValues>
            3.3343964815139771e-01 -2.0514301955699921e-01</leafValues></_>
        <_>
          <internalNodes>
            0 -1 364 -1.1067063314840198e-03</internalNodes>
          <leafValues>
            2.3761144280433655e-01 -2.4785792827606201e-01</leafValues></_>
        <_>
          <internalNodes>
            0 -1 265 6.6831428557634354e-04</internalNodes>
          <leafValues>
            -3.1459608674049377e-01 1.9866324961185455e-01</leafValues></_>
        <_>
          <internalNodes>
            0 -1 356 1.2832158245146275e-04</internalNodes>
          <leafValues>
            -2.4625021219253540e-01 2.5240677595138550e-01</leafValues></_>
        <_>
          <internalNodes>
            0 -1 114 -4.9291539471596479e-04</internalNodes>
          <leafValues>
            2.5582790374755859e-01 -2.2708854079246521e-01</leafValues></_>
        <_>
          <internalNodes>
            0 -1 408 -7.3833484202623367e-03</internalNodes>
          <leafValues>
