<?xml version="1.0"?>
<opencv_storage>
<stage6>
  <maxWeakCount>23</maxWeakCount>
  <stageThreshold>-9.8098820447921753e-01</stageThreshold>
  <weakClassifiers>
    <_>
      <internalNodes>
        0 -1 273198 6.7379176616668701e-02</internalNodes>
      <leafValues>
        -9.0751945972442627e-02 5.9956592321395874e-01</leafValues></_>
    <_>
      <internalNodes>
        0 -1 89798 1.0159708559513092e-02</internalNodes>
      <leafValues>
        -3.4935304522514343e-01 3.4853133559226990e-01</leafValues></_>
    <_>
      <internalNodes>
        0 -1 325057 -1.0498062707483768e-02</internalNodes>
      <leafValues>
        4.8107871413230896e-01 -1.7823795974254608e-01</leafValues></_>
    <_>
      <internalNodes>
        0 -1 277711 -6.5446586813777685e-04</internalNodes>
      <leafValues>
        1.9728243350982666e-01 -4.7472283244132996e-01</leafValues></_>
    <_>
      <internalNodes>
        0 -1 356552 1.1759711196646094e-03</internalNodes>
      <leafValues>
        -2.2918072342872620e-01 3.6035183072090149e-01</leafValues></_>
    <_>
      <internalNodes>
        0 -1 304970 -2.0418374333530664e-03</internalNodes>
      <leafValues>
        -8.4919387102127075e-01 9.2257447540760040e-02</leafValues></_>
    <_>
      <internalNodes>
        0 -1 304083 -1.7380439676344395e-03</internalNodes>
      <leafValues>
        2.5482380390167236e-01 -2.9944160580635071e-01</leafValues></_>
    <_>
      <internalNodes>
        0 -1 292118 -3.6721613723784685e-03</internalNodes>
      <leafValues>
        2.5517722964286804e-01 -3.4304958581924438e-01</leafValues></_>
    <_>
      <internalNodes>
        0 -1 212716 -4.6000897884368896e-02</internalNodes>
      <leafValues>
        -6.0625994205474854e-01 1.1897163838148117e-01</leafValues></_>
    <_>
      <internalNodes>
        0 -1 292888 4.4761298340745270e-04</internalNodes>
      <leafValues>
        1.0865978896617889e-01 -6.1915314197540283e-01</leafValues></_>
    <_>
      <internalNodes>
        0 -1 347620 1.9102373626083136e-03</internalNodes>
      <leafValues>
        -1.5984000265598297e-01 4.1173368692398071e-01</leafValues></_>
    <_>
      <internalNodes>
        0 -1 316646 -1.5940966550260782e-03</internalNodes>
      <leafValues>
        1.9112120568752289e-01 -3.6993518471717834e-01</leafValues></_>
    <_>
      <internalNodes>
        0 -1 135093 -3.8273233920335770e-02</internalNodes>
      <leafValues>
        -8.8063436746597290e-01 7.1141138672828674e-02</leafValues></_>
    <_>
      <internalNodes>
        0 -1 245584 -8.0083956709131598e-04</internalNodes>
      <leafValues>
        3.0210208892822266e-01 -2.2154946625232697e-01</leafValues></_>
    <_>
      <internalNodes>
        0 -1 304928 -1.8324750708416104e-03</internalNodes>
      <leafValues>
        -9.0719926357269287e-01 6.6264271736145020e-02</leafValues></_>
    <_>
      <internalNodes>
        0 -1 272765 -2.3894576355814934e-02</internalNodes>
      <leafValues>
        8.5409808158874512e-01 -9.9657513201236725e-02</leafValues></_>
    <_>
      <internalNodes>
        0 -1 316171 -1.6383549664169550e-03</internalNodes>
      <leafValues>
        1.4752639830112457e-01 -5.6709253787994385e-01</leafValues></_>
    <_>
      <internalNodes>
        0 -1 304918 5.2447040798142552e-04</internalNodes>
      <leafValues>
        1.0710158944129944e-01 -5.6575101613998413e-01</leafValues></_>
    <_>
      <internalNodes>
        0 -1 178738 6.3578607514500618e-03</internalNodes>
      <leafValues>
        -1.4479038119316101e-01 5.6061261892318726e-01</leafValues></_>
    <_>
      <internalNodes>
        0 -1 370979 -1.1767202522605658e-03</internalNodes>
      <leafValues>
        3.7690421938896179e-01 -2.0322515070438385e-01</leafValues></_>
    <_>
      <internalNodes>
        0 -1 304083 -7.8802574425935745e-03</internalNodes>
      <leafValues>
        -9.1517812013626099e-01 6.9678530097007751e-02</leafValues></_>
    <_>
      <internalNodes>
        0 -1 207333 -1.3494031503796577e-02</internalNodes>
      <leafValues>
        8.1153661012649536e-01 -8.9402601122856140e-02</leafValues></_>
    <_>
      <internalNodes>
        0 -1 173602 4.3901905417442322e-02</internalNodes>
      <leafValues>
        9.4996884465217590e-02 -7.6298874616622925e-01</leafValues></_></weakClassifiers></stage6>
</opencv_storage>
