<?xml version="1.0"?>
<opencv_storage>
<stage2>
  <maxWeakCount>13</maxWeakCount>
  <stageThreshold>-1.2802759408950806e+00</stageThreshold>
  <weakClassifiers>
    <_>
      <internalNodes>
        0 -1 286845 3.9531953632831573e-02</internalNodes>
      <leafValues>
        -2.1962264180183411e-01 7.0430380105972290e-01</leafValues></_>
    <_>
      <internalNodes>
        0 -1 133124 6.3224211335182190e-03</internalNodes>
      <leafValues>
        -3.4767001867294312e-01 4.7398811578750610e-01</leafValues></_>
    <_>
      <internalNodes>
        0 -1 277868 -2.2179263178259134e-03</internalNodes>
      <leafValues>
        2.7679637074470520e-01 -6.1649769544601440e-01</leafValues></_>
    <_>
      <internalNodes>
        0 -1 211797 2.3234531283378601e-02</internalNodes>
      <leafValues>
        -5.7898890972137451e-01 2.5142318010330200e-01</leafValues></_>
    <_>
      <internalNodes>
        0 -1 190791 2.3968545719981194e-03</internalNodes>
      <leafValues>
        -3.0641877651214600e-01 3.3807712793350220e-01</leafValues></_>
    <_>
      <internalNodes>
        0 -1 304490 -1.6342282760888338e-03</internalNodes>
      <leafValues>
        -7.9146033525466919e-01 1.3171640038490295e-01</leafValues></_>
    <_>
      <internalNodes>
        0 -1 304925 2.2136094048619270e-03</internalNodes>
      <leafValues>
        5.2750620990991592e-02 -7.9218554496765137e-01</leafValues></_>
    <_>
      <internalNodes>
        0 -1 304536 -6.3986657187342644e-03</internalNodes>
      <leafValues>
        -8.3484780788421631e-01 1.0275784134864807e-01</leafValues></_>
    <_>
      <internalNodes>
        0 -1 278732 4.5165035407990217e-04</internalNodes>
      <leafValues>
        1.4511057734489441e-01 -6.7735999822616577e-01</leafValues></_>
    <_>
      <internalNodes>
        0 -1 290861 -1.3889207504689693e-02</internalNodes>
      <leafValues>
        1.7539906501770020e-01 -5.4669648408889771e-01</leafValues></_>
    <_>
      <internalNodes>
        0 -1 178162 -7.7206979040056467e-04</internalNodes>
      <leafValues>
        3.7127789855003357e-01 -2.4880164861679077e-01</leafValues></_>
    <_>
      <internalNodes>
        0 -1 292932 7.5434730388224125e-04</internalNodes>
      <leafValues>
        1.5621285140514374e-01 -6.2583380937576294e-01</leafValues></_>
    <_>
      <internalNodes>
        0 -1 248127 2.2935055196285248e-02</internalNodes>
      <leafValues>
        1.0257787257432938e-01 -7.4357116222381592e-01</leafValues></_></weakClassifiers></stage2>
</opencv_storage>
