<?xml version="1.0"?>
<opencv_storage>
<stage8>
  <maxWeakCount>25</maxWeakCount>
  <stageThreshold>-8.7871450185775757e-01</stageThreshold>
  <weakClassifiers>
    <_>
      <internalNodes>
        0 -1 174361 4.6484865248203278e-02</internalNodes>
      <leafValues>
        -1.6008315980434418e-01 5.6624138355255127e-01</leafValues></_>
    <_>
      <internalNodes>
        0 -1 194750 -3.6124153994023800e-03</internalNodes>
      <leafValues>
        4.1338223218917847e-01 -2.6112300157546997e-01</leafValues></_>
    <_>
      <internalNodes>
        0 -1 151082 2.8049141168594360e-02</internalNodes>
      <leafValues>
        -5.3679537773132324e-01 1.7478971183300018e-01</leafValues></_>
    <_>
      <internalNodes>
        0 -1 347965 1.7598310951143503e-03</internalNodes>
      <leafValues>
        -2.4408434331417084e-01 2.8536888957023621e-01</leafValues></_>
    <_>
      <internalNodes>
        0 -1 292003 -3.7517683813348413e-04</internalNodes>
      <leafValues>
        1.5547916293144226e-01 -4.2495816946029663e-01</leafValues></_>
    <_>
      <internalNodes>
        0 -1 291091 -3.1413063406944275e-03</internalNodes>
      <leafValues>
        2.6623657345771790e-01 -2.5043818354606628e-01</leafValues></_>
    <_>
      <internalNodes>
        0 -1 154747 -6.2106817960739136e-02</internalNodes>
      <leafValues>
        -6.6321945190429688e-01 9.1640241444110870e-02</leafValues></_>
    <_>
      <internalNodes>
        0 -1 41094 -8.8003687560558319e-03</internalNodes>
      <leafValues>
        -5.9974753856658936e-01 1.0669577866792679e-01</leafValues></_>
    <_>
      <internalNodes>
        0 -1 304485 -1.6484220977872610e-03</internalNodes>
      <leafValues>
        -7.9498338699340820e-01 3.4262236207723618e-02</leafValues></_>
    <_>
      <internalNodes>
        0 -1 193952 -1.6088525298982859e-03</internalNodes>
      <leafValues>
        2.3988552391529083e-01 -2.5893536210060120e-01</leafValues></_>
    <_>
      <internalNodes>
        0 -1 304928 1.6648219898343086e-03</internalNodes>
      <leafValues>
        8.2756042480468750e-02 -6.9284677505493164e-01</leafValues></_>
    <_>
      <internalNodes>
        0 -1 260733 6.2542976811528206e-03</internalNodes>
      <leafValues>
        -1.5967357158660889e-01 3.9675050973892212e-01</leafValues></_>
    <_>
      <internalNodes>
        0 -1 287479 -1.5013979747891426e-02</internalNodes>
      <leafValues>
        4.4533467292785645e-01 -1.3995681703090668e-01</leafValues></_>
    <_>
      <internalNodes>
        0 -1 260725 -6.0301343910396099e-04</internalNodes>
      <leafValues>
        3.8257867097854614e-01 -1.7471164464950562e-01</leafValues></_>
    <_>
      <internalNodes>
        0 -1 64529 -6.4040020108222961e-02</internalNodes>
      <leafValues>
        -5.2540653944015503e-01 1.1016738414764404e-01</leafValues></_>
    <_>
      <internalNodes>
        0 -1 317781 5.6298056733794510e-05</internalNodes>
      <leafValues>
        1.3922509551048279e-01 -3.4834310412406921e-01</leafValues></_>
    <_>
      <internalNodes>
        0 -1 259444 -3.5144433379173279e-02</internalNodes>
      <leafValues>
        -5.0249785184860229e-01 1.0021448135375977e-01</leafValues></_>
    <_>
      <internalNodes>
        0 -1 173561 -2.1744947880506516e-02</internalNodes>
      <leafValues>
        -8.4681159257888794e-01 5.3086131811141968e-02</leafValues></_>
    <_>
      <internalNodes>
        0 -1 374321 3.3195675350725651e-03</internalNodes>
      <leafValues>
        -1.6561797261238098e-01 3.3405753970146179e-01</leafValues></_>
    <_>
      <internalNodes>
        0 -1 292576 9.1692642308771610e-04</internalNodes>
      <leafValues>
        6.5308436751365662e-02 -7.9749715328216553e-01</leafValues></_>
    <_>
      <internalNodes>
        0 -1 370427 -1.2354876380413771e-03</internalNodes>
      <leafValues>
        -7.7389538288116455e-01 5.6559167802333832e-02</leafValues></_>
    <_>
      <internalNodes>
        0 -1 278191 2.3040396627038717e-04</internalNodes>
      <leafValues>
        1.2430334836244583e-01 -4.1078248620033264e-01</leafValues></_>
    <_>
      <internalNodes>
        0 -1 346388 -2.1516289561986923e-02</internalNodes>
      <leafValues>
        -7.6886367797851562e-01 6.7894116044044495e-02</leafValues></_>
    <_>
      <internalNodes>
        0 -1 303519 5.0876976456493139e-04</internalNodes>
      <leafValues>
        -2.1000726521015167e-01 2.3408630490303040e-01</leafValues></_>
    <_>
      <internalNodes>
        0 -1 328364 -5.6321192532777786e-03</internalNodes>
      <leafValues>
        -6.9150215387344360e-01 7.4583306908607483e-02</leafValues></_></weakClassifiers></stage8>
</opencv_storage>
